task,bias,age_z,sex,lhl_0,lhl_1,lhl_2,lhl_3,lhl_4,lhl_5,lhl_6,lhl_7,lhl_8,lhl_9,lhl_10,lhl_11,lhl_12,lhl_13,lhl_14,lhl_15,lhl_16,lhl_17,lhl_18,lhl_19,lhl_20,lhl_21,lhl_22,lhl_23,lhl_24,lhl_25,lhl_26,lhl_27,lhl_28,lhl_29,lhl_30,lhl_31,lhl_32,lhl_33,lhl_34,lhl_35,lhl_36,lhl_37,lhl_38,lhl_39,lhl_40,lhl_41,lhl_42,lhl_43,lhl_44,lhl_45,lhl_46,lhl_47,lhl_48,lhl_49,lhl_50,lhl_51,lhl_52,lhl_53,lhl_54,lhl_55,lhl_56,lhl_57,lhl_58,lhl_59,lhl_60,lhl_61,lhl_62,lhl_63,lhl_64,lhl_65,lhl_66,lhl_67,lhl_68,lhl_69,lhl_70,lhl_71,lhl_72,lhl_73,lhl_74,lhl_75,lhl_76,lhl_77,lhl_78,lhl_79,lhl_80,lhl_81,lhl_82,lhl_83,lhl_84,lhl_85,lhl_86,lhl_87,lhl_88,lhl_89,lhl_90,lhl_91,lhl_92,lhl_93,lhl_94,lhl_95,lhl_96,lhl_97,lhl_98,lhl_99,lhl_100,lhl_101,lhl_102,lhl_103,lhl_104,lhl_105,lhl_106,lhl_107,lhl_108,lhl_109,lhl_110,lhl_111,lhl_112,lhl_113,lhl_114,lhl_115,lhl_116,lhl_117,lhl_118,lhl_119,lhl_120,lhl_121,lhl_122,lhl_123,lhl_124,lhl_125,lhl_126,lhl_127,lhl_128,lhl_129,lhl_130,lhl_131,lhl_132,lhl_133,lhl_134,lhl_135,lhl_136,lhl_137,lhl_138,lhl_139,lhl_140,lhl_141,lhl_142,lhl_143,lhl_144,lhl_145,lhl_146,lhl_147,lhl_148,lhl_149,lhl_150,lhl_151,lhl_152,lhl_153,lhl_154,lhl_155,lhl_156,lhl_157,lhl_158,lhl_159,lhl_160,lhl_161,lhl_162,lhl_163,lhl_164,lhl_165,lhl_166,lhl_167,lhl_168,lhl_169,lhl_170,lhl_171,lhl_172,lhl_173,lhl_174,lhl_175,lhl_176,lhl_177,lhl_178,lhl_179,lhl_180,lhl_181,lhl_182,lhl_183,lhl_184,lhl_185,lhl_186,lhl_187,lhl_188,lhl_189,lhl_190,lhl_191,lhl_192,lhl_193,lhl_194,lhl_195,lhl_196,lhl_197,lhl_198,lhl_199,lhl_200,lhl_201,lhl_202,lhl_203,lhl_204,lhl_205,lhl_206,lhl_207,lhl_208,lhl_209,lhl_210,lhl_211,lhl_212,lhl_213,lhl_214,lhl_215,lhl_216,lhl_217,lhl_218,lhl_219,lhl_220,lhl_221,lhl_222,lhl_223,lhl_224,lhl_225,lhl_226,lhl_227,lhl_228,lhl_229,lhl_230,lhl_231,lhl_232,lhl_233,lhl_234,lhl_235,lhl_236,lhl_237,lhl_238,lhl_239,lhl_240,lhl_241,lhl_242,lhl_243,lhl_244,lhl_245,lhl_246,lhl_247,lhl_248,lhl_249,lhl_250,lhl_251,lhl_252,lhl_253,lhl_254,lhl_255,lhl_256,lhl_257,lhl_258,lhl_259,lhl_260,lhl_261,lhl_262,lhl_263,lhl_264,lhl_265,lhl_266,lhl_267,lhl_268,lhl_269,lhl_270,lhl_271,lhl_272,lhl_273,lhl_274,lhl_275,lhl_276,lhl_277,lhl_278,lhl_279,lhl_280,lhl_281,lhl_282,lhl_283,lhl_284,lhl_285,lhl_286,lhl_287,lhl_288,lhl_289,lhl_290,lhl_291,lhl_292,lhl_293,lhl_294,lhl_295,lhl_296,lhl_297,lhl_298,lhl_299,lhl_300,lhl_301,lhl_302,lhl_303,lhl_304,lhl_305,lhl_306,lhl_307,lhl_308,lhl_309,lhl_310,lhl_311,lhl_312,lhl_313,lhl_314,lhl_315,lhl_316,lhl_317,lhl_318,lhl_319,lhl_320,lhl_321,lhl_322,lhl_323,lhl_324,lhl_325,lhl_326,lhl_327,lhl_328,lhl_329,lhl_330,lhl_331,lhl_332,lhl_333,lhl_334,lhl_335,lhl_336,lhl_337,lhl_338,lhl_339,lhl_340,lhl_341,lhl_342,lhl_343,lhl_344,lhl_345,lhl_346,lhl_347,lhl_348,lhl_349,lhl_350,lhl_351,lhl_352,lhl_353,lhl_354,lhl_355,lhl_356,lhl_357,lhl_358,lhl_359,lhl_360,lhl_361,lhl_362,lhl_363,lhl_364,lhl_365,lhl_366,lhl_367,lhl_368,lhl_369,lhl_370,lhl_371,lhl_372,lhl_373,lhl_374,lhl_375,lhl_376,lhl_377,lhl_378,lhl_379,lhl_380,lhl_381,lhl_382,lhl_383,lhl_384,lhl_385,lhl_386,lhl_387,lhl_388,lhl_389,lhl_390,lhl_391,lhl_392,lhl_393,lhl_394,lhl_395,lhl_396,lhl_397,lhl_398,lhl_399,lhl_400,lhl_401,lhl_402,lhl_403,lhl_404,lhl_405,lhl_406,lhl_407,lhl_408,lhl_409,lhl_410,lhl_411,lhl_412,lhl_413,lhl_414,lhl_415,lhl_416,lhl_417,lhl_418,lhl_419,lhl_420,lhl_421,lhl_422,lhl_423,lhl_424,lhl_425,lhl_426,lhl_427,lhl_428,lhl_429,lhl_430,lhl_431,lhl_432,lhl_433,lhl_434,lhl_435,lhl_436,lhl_437,lhl_438,lhl_439,lhl_440,lhl_441,lhl_442,lhl_443,lhl_444,lhl_445,lhl_446,lhl_447,lhl_448,lhl_449,lhl_450,lhl_451,lhl_452,lhl_453,lhl_454,lhl_455,lhl_456,lhl_457,lhl_458,lhl_459,lhl_460,lhl_461,lhl_462,lhl_463,lhl_464,lhl_465,lhl_466,lhl_467,lhl_468,lhl_469,lhl_470,lhl_471,lhl_472,lhl_473,lhl_474,lhl_475,lhl_476,lhl_477,lhl_478,lhl_479,lhl_480,lhl_481,lhl_482,lhl_483,lhl_484,lhl_485,lhl_486,lhl_487,lhl_488,lhl_489,lhl_490,lhl_491,lhl_492,lhl_493,lhl_494,lhl_495,lhl_496,lhl_497,lhl_498,lhl_499,lhl_500,lhl_501,lhl_502,lhl_503,lhl_504,lhl_505,lhl_506,lhl_507,lhl_508,lhl_509,lhl_510,lhl_511,lhl_512,lhl_513,lhl_514,lhl_515,lhl_516,lhl_517,lhl_518,lhl_519,lhl_520,lhl_521,lhl_522,lhl_523,lhl_524,lhl_525,lhl_526,lhl_527,lhl_528,lhl_529,lhl_530,lhl_531,lhl_532,lhl_533,lhl_534,lhl_535,lhl_536,lhl_537,lhl_538,lhl_539,lhl_540,lhl_541,lhl_542,lhl_543,lhl_544,lhl_545,lhl_546,lhl_547,lhl_548,lhl_549,lhl_550,lhl_551,lhl_552,lhl_553,lhl_554,lhl_555,lhl_556,lhl_557,lhl_558,lhl_559,lhl_560,lhl_561,lhl_562,lhl_563,lhl_564,lhl_565,lhl_566,lhl_567,lhl_568,lhl_569,lhl_570,lhl_571,lhl_572,lhl_573,lhl_574,lhl_575,lhl_576,lhl_577,lhl_578,lhl_579,lhl_580,lhl_581,lhl_582,lhl_583,lhl_584,lhl_585,lhl_586,lhl_587,lhl_588,lhl_589,lhl_590,lhl_591,lhl_592,lhl_593,lhl_594,lhl_595,lhl_596,lhl_597,lhl_598,lhl_599,lhl_600,lhl_601,lhl_602,lhl_603,lhl_604,lhl_605,lhl_606,lhl_607,lhl_608,lhl_609,lhl_610,lhl_611,lhl_612,lhl_613,lhl_614,lhl_615,lhl_616,lhl_617,lhl_618,lhl_619,lhl_620,lhl_621,lhl_622,lhl_623,lhl_624,lhl_625,lhl_626,lhl_627,lhl_628,lhl_629,lhl_630,lhl_631,lhl_632,lhl_633,lhl_634,lhl_635,lhl_636,lhl_637,lhl_638,lhl_639,lhl_640,lhl_641,lhl_642,lhl_643,lhl_644,lhl_645,lhl_646,lhl_647,lhl_648,lhl_649,lhl_650,lhl_651,lhl_652,lhl_653,lhl_654,lhl_655,lhl_656,lhl_657,lhl_658,lhl_659,lhl_660,lhl_661,lhl_662,lhl_663,lhl_664,lhl_665,lhl_666,lhl_667,lhl_668,lhl_669,lhl_670,lhl_671,lhl_672,lhl_673,lhl_674,lhl_675,lhl_676,lhl_677,lhl_678,lhl_679,lhl_680,lhl_681,lhl_682,lhl_683,lhl_684,lhl_685,lhl_686,lhl_687,lhl_688,lhl_689,lhl_690,lhl_691,lhl_692,lhl_693,lhl_694,lhl_695,lhl_696,lhl_697,lhl_698,lhl_699,lhl_700,lhl_701,lhl_702,lhl_703,lhl_704,lhl_705,lhl_706,lhl_707,lhl_708,lhl_709,lhl_710,lhl_711,lhl_712,lhl_713,lhl_714,lhl_715,lhl_716,lhl_717,lhl_718,lhl_719,lhl_720,lhl_721,lhl_722,lhl_723,lhl_724,lhl_725,lhl_726,lhl_727,lhl_728,lhl_729,lhl_730,lhl_731,lhl_732,lhl_733,lhl_734,lhl_735,lhl_736,lhl_737,lhl_738,lhl_739,lhl_740,lhl_741,lhl_742,lhl_743,lhl_744,lhl_745,lhl_746,lhl_747,lhl_748,lhl_749,lhl_750,lhl_751,lhl_752,lhl_753,lhl_754,lhl_755,lhl_756,lhl_757,lhl_758,lhl_759,lhl_760,lhl_761,lhl_762,lhl_763,lhl_764,lhl_765,lhl_766,lhl_767,lhl_768,lhl_769,lhl_770,lhl_771,lhl_772,lhl_773,lhl_774,lhl_775,lhl_776,lhl_777,lhl_778,lhl_779,lhl_780,lhl_781,lhl_782,lhl_783,lhl_784,lhl_785,lhl_786,lhl_787,lhl_788,lhl_789,lhl_790,lhl_791,lhl_792,lhl_793,lhl_794,lhl_795,lhl_796,lhl_797,lhl_798,lhl_799,lhl_800,lhl_801,lhl_802,lhl_803,lhl_804,lhl_805,lhl_806,lhl_807,lhl_808,lhl_809,lhl_810,lhl_811,lhl_812,lhl_813,lhl_814,lhl_815,lhl_816,lhl_817,lhl_818,lhl_819,lhl_820,lhl_821,lhl_822,lhl_823,lhl_824,lhl_825,lhl_826,lhl_827,lhl_828,lhl_829,lhl_830,lhl_831,lhl_832,lhl_833,lhl_834,lhl_835,lhl_836,lhl_837,lhl_838,lhl_839,lhl_840,lhl_841,lhl_842,lhl_843,lhl_844,lhl_845,lhl_846,lhl_847,lhl_848,lhl_849,lhl_850,lhl_851,lhl_852,lhl_853,lhl_854,lhl_855,lhl_856,lhl_857,lhl_858,lhl_859,lhl_860,lhl_861,lhl_862,lhl_863,lhl_864,lhl_865,lhl_866,lhl_867,lhl_868,lhl_869,lhl_870,lhl_871,lhl_872,lhl_873,lhl_874,lhl_875,lhl_876,lhl_877,lhl_878,lhl_879,lhl_880,lhl_881,lhl_882,lhl_883,lhl_884,lhl_885,lhl_886,lhl_887,lhl_888,lhl_889,lhl_890,lhl_891,lhl_892,lhl_893,lhl_894,lhl_895,lhl_896,lhl_897,lhl_898,lhl_899,lhl_900,lhl_901,lhl_902,lhl_903,lhl_904,lhl_905,lhl_906,lhl_907,lhl_908,lhl_909,lhl_910,lhl_911,lhl_912,lhl_913,lhl_914,lhl_915,lhl_916,lhl_917,lhl_918,lhl_919,lhl_920,lhl_921,lhl_922,lhl_923,lhl_924,lhl_925,lhl_926,lhl_927,lhl_928,lhl_929,lhl_930,lhl_931,lhl_932,lhl_933,lhl_934,lhl_935,lhl_936,lhl_937,lhl_938,lhl_939,lhl_940,lhl_941,lhl_942,lhl_943,lhl_944,lhl_945,lhl_946,lhl_947,lhl_948,lhl_949,lhl_950,lhl_951,lhl_952,lhl_953,lhl_954,lhl_955,lhl_956,lhl_957,lhl_958,lhl_959,lhl_960,lhl_961,lhl_962,lhl_963,lhl_964,lhl_965,lhl_966,lhl_967,lhl_968,lhl_969,lhl_970,lhl_971,lhl_972,lhl_973,lhl_974,lhl_975,lhl_976,lhl_977,lhl_978,lhl_979,lhl_980,lhl_981,lhl_982,lhl_983,lhl_984,lhl_985,lhl_986,lhl_987,lhl_988,lhl_989,lhl_990,lhl_991,lhl_992,lhl_993,lhl_994,lhl_995,lhl_996,lhl_997,lhl_998,lhl_999,lhl_1000,lhl_1001,lhl_1002,lhl_1003,lhl_1004,lhl_1005,lhl_1006,lhl_1007,lhl_1008,lhl_1009,lhl_1010,lhl_1011,lhl_1012,lhl_1013,lhl_1014,lhl_1015,lhl_1016,lhl_1017,lhl_1018,lhl_1019,lhl_1020,lhl_1021,lhl_1022,lhl_1023
cog_fluid_mgh-cog,-0.01120687,-0.0263630988743874,-0.0081796120875678,0.0,0.0054656131010719,-0.0080357618253072,0.0,0.00756037080994,0.0030490207632424,-8.65267792773734e-05,0.0059915198069182,0.000561949918998,-0.0052605889974306,-0.0012614482153361,0.0085306632948325,-0.0040370382454572,0.0,-0.0096732753622086,0.0007513867726848,-0.0149130618681449,0.0013944189310913,-0.0002738393980306,-0.0027806113843783,-0.0022589365049352,0.0,-0.0011398432507108,0.0038408393011832,-0.0002616883575156,-0.001692061606515,-0.0001342016546056,-0.0060553568349078,-0.0025048649148472,-0.000776545169445,0.0003555659855607,0.0005533513827443,-0.0005876959633091,0.0080555330211719,0.0110161031288665,-0.0013469381361647,0.0010248138867686,0.0120281380577931,-0.0107272776832587,-0.0050424668112132,0.0036745032074903,0.000925304760389,0.0031507078041238,-0.0096702821193813,-0.0022545183795829,-0.0095344065179582,0.0009794929698376,-0.0107119954479765,-0.0002466488996424,-0.0047486527492968,0.0010399821715462,-0.0015238425760905,0.0001828512696505,-0.0034519996740786,0.0024608817175569,-0.0045379588980227,0.0007493213927912,-0.0090806680770811,0.0019048819990835,0.0013582686085253,-0.0037680997325447,-0.0015316736966177,0.0027850809462833,-0.0015934668607091,0.0054234993043345,-0.0021814639486247,-0.0038982168280172,-0.0038515522406199,-0.0011424295494714,-0.0007992763794666,0.0016127954665125,-0.0062164825055397,-0.0005962348878937,-0.0017955741109393,0.0051017310398084,0.0071952116623455,-0.0046944488948458,-0.0008759280692282,0.0021014607255697,0.0016075406126153,-0.0019151257087652,-0.0033293192469268,0.0034868937599578,0.0003356047329106,0.0,0.0112429767882774,0.0015369436758359,0.0,0.0051808993848688,-0.0108984343975368,0.0015575762301105,0.0036937059211406,0.0013261972715215,-0.0017809605270324,0.0051662327793997,-0.0051080373835547,0.01361114230812,-0.0018842798048611,-0.0043540119222546,0.0,-0.0008710849252766,0.0,0.0,-0.0125364367228194,-0.012125705127991,-0.0002598219188949,-0.0008111236881842,-0.0100745810525216,0.0026005991104664,0.0011230824614092,-0.0026419287401017,-0.0012864246776295,-0.001484387496829,0.0,-0.0055553788091886,-0.0024105198751638,-0.0029484987360025,0.0107894804064226,-0.0054660430999399,0.003358406167412,0.0071294440357528,0.0110812322133872,0.0035578067297729,0.0014174339133415,0.001506352520357,-0.0031377509812467,-0.0049431128887395,-0.0061067277902372,0.0030687806554534,0.009201138036633,0.0040409865278899,0.0044867101126004,0.0100962632870119,0.0108802688302408,0.0,-0.0069032844636693,-0.0008319041353174,-0.0123323116222682,0.0031877125219177,0.0010602582649279,-0.0011516114748057,-0.0095766577605269,0.0125473648954391,0.0044027944273028,0.0086753466833337,-0.0068952557445406,-0.0066557668976854,0.0156600867376555,0.0023672362811709,-0.0019593345239987,-0.002948194475491,0.0041543516782882,-0.0061079162633271,-0.0108868476926792,-0.0038195386202106,-0.0008490806840838,0.0063712985721634,-0.0003228945552886,0.0074336386781914,0.0,-0.0029624620854856,-0.002982861308325,-0.0014223354030651,0.0,-0.0052400161741342,0.0004587253350732,0.0024247753487695,-0.0042224258278006,0.0122042868534077,-0.0020423941999301,-0.0010104260069184,-0.0038550411756913,-0.0025970054306247,0.0042577295601857,0.0015807674304017,0.0046558714698428,-0.0001549082889841,-0.0076365596221067,-0.0081157841565857,-0.0085831491082485,-0.0030622501540479,-0.0015894558435802,-0.0077930156922053,0.0031069562874045,0.0,0.0032692676952741,-0.0019131743351684,-0.0011963256181934,0.0030029576099141,-0.0072307062090865,-0.007617619766327,0.0026790013831948,0.0019535914565171,0.0056054104579215,-6.430318321476008e-05,-0.0022629927714486,0.0016149036614588,-0.0041927387501022,0.0031379743232527,-0.0025469631131902,0.0140427534591572,-0.0050524786194926,0.0007468475659541,-0.008531268869078,-0.0008226485990093,-0.0043714339138636,0.0011760780078531,-0.0021781086323855,0.0025067635479662,0.0,-0.0054235260312818,0.0015971181142231,-0.0072515184819775,0.0096412623266668,0.0038277511074516,-0.0065841230756677,-0.0024703591445225,-0.0012634157726502,0.0090482957771931,-0.00986690651103,0.0009154387384185,-0.0025970192337734,-0.0042581068054661,0.0024551857202336,0.0074584676002286,0.0080436721472847,-0.0009993612631148,-0.0023020252597626,0.0030865289605525,-0.0015489509352779,0.0091093669299126,-0.0002755406388267,0.0017307553919717,-0.0049358766015866,-0.010080175146928,0.0159718289290036,-0.0008394619422615,-0.0004139114546979,-0.0058231907596161,-0.0004179880398964,-0.0021257925565167,-0.002594936137687,0.0027679991770287,0.0028524301829313,-0.0020216713273725,0.0002382537833374,0.0084590689693019,-0.0020069491894109,-0.0049151539673892,-0.0085894130726568,-0.0040217616540041,-0.0031378128990151,-0.0001134946297218,-0.0074408515715617,0.0015819473480097,0.0,-0.001476270484166,-0.0010856586387355,-0.00292825841665,0.0062734479742598,-0.0064346536426165,0.006909360414497,0.0063155451456175,0.0011005916345286,0.0008139546118771,-0.0007136183959948,-0.0036702445696464,0.004772795357469,0.0,0.0070479040269862,0.0107483718314927,-0.0089125087197686,0.0083642816738521,-0.0006369277327575,0.0048996363627727,0.001630015903399,-0.0027074660332112,0.0073456423814558,0.0013383972081515,-0.0023549581407429,0.0060343984624652,0.008589029943103,-4.3054419942578e-05,0.0,-0.0082530152093154,-0.005768731432333,0.0077434308688472,-0.0061003508039875,0.0089499823559354,-0.0016417829646992,-0.0042170721531385,-0.002570239170688,0.0030059408340947,-0.0098046426703533,0.0078560192867362,0.0079627318596911,-0.0077479444046818,0.0005482849955841,0.0032531701177589,-0.0070075774325237,0.0006279751751347,0.003948393201084,0.0095355307455852,0.004861579927388,-0.000794838059104,0.0014710011196431,-0.0018115116215092,0.0117874033473338,-0.0026336896804468,0.008771973511141,-0.0007355272515662,9.9906085030987e-05,-0.0016722003559601,0.0070784842718628,0.0042788417150077,0.0,0.0007786987324844,0.0033713060683445,-0.0031247713487406,-0.0002270174741804,-0.0116219539112865,-0.012663233531454,0.0026051842903969,0.0076177893836655,0.005053135234321,0.0018701755356827,0.0067485922082644,-0.0143923164880581,-0.0060833580623552,0.0,0.0006223491421079,-0.0101293961806652,0.0030111529769042,0.0012498282680279,-0.0101140213673262,0.0162897903354446,-0.000809355131363,-0.0061154907433129,-7.34918905070507e-05,0.0032067010667765,-0.0016730485550489,0.0,-0.0066618581412828,-0.0019426763567153,0.0045630708740365,-0.0008035677818849,-0.0033502629948011,0.0001082651735777,-0.0249053917659475,0.007807758192238,-0.0100796841469527,0.0,0.0024532058958997,-0.0011106216432504,-0.0050052478673715,-0.0010558477256673,0.0012427888688356,-0.0060299898997041,-0.000286703710067,0.001054390060728,0.0089519268498749,0.0023594772802395,-0.0030200261716959,-0.0046585598356132,0.0076377114073041,0.0030146828182409,-0.0006431804809818,0.0031657160678148,-0.0046477484680952,-0.0061281482477414,0.0020774054714777,-0.0099439600698411,0.0029410660394801,-0.0041017334005063,0.0017226809723376,-0.0102125995836242,-0.0007472564732281,0.0007242261322937,0.0,-0.0009063983445081,-0.0024603768337532,0.0082454520414183,0.002146252494417,-0.0034303338339957,-0.001817292524499,-0.0087198202579864,-0.0041985210462407,0.0001182149982939,0.0044632612283689,0.0,-0.0097716041837631,-0.0048077106053846,-0.0015903406028898,0.0,0.0037777533869217,-0.0027776323509271,-0.0027635697916092,0.0055241512983916,-0.00092088351927,0.0009153847662844,0.0018242598419008,-0.0016865469883709,-0.0036358537994279,0.0,-0.0119198585480436,0.0016791461752735,-0.0006061687844638,-0.0026020350467403,-0.0028143146525394,0.0052638079178708,0.0051019355710875,-0.0079489407100497,-0.003729506410164,0.0175067701137589,0.0015987577150045,-0.0082317481167562,0.0060551061799301,-0.0019932450133594,0.0030363472429558,0.0,0.0005343287501647,7.973596254783047e-05,-0.0002006876341964,0.0018402388980943,-0.0030995965522259,0.0071950345997718,0.0006428310900086,-0.0049313309929483,-0.0142097599276265,-0.0075556788956664,0.0076632897443312,-0.0030660168051592,-0.0088327926522858,-0.0009907932932594,-0.0054736837786844,0.0,-0.0032154552195541,-0.0006542783436403,0.0037580178094776,0.0038371067126717,-0.0117629930050054,0.0001979163646963,0.0044815436858945,-0.0034582991706514,0.0,0.0020511977639869,0.0046692058096552,0.0067219709891383,-0.0040651482274769,0.0015237681851164,-0.0022967908580856,0.007111273932029,-0.0011653992696492,0.0032623127838444,-0.0060199560561056,-0.0010094337037864,-0.0017666902627926,-0.0056173711414492,0.0004677431636904,0.0046556711129237,0.0069013715889099,0.0025022787097376,0.0003575390064344,0.0032010588392772,0.0049162517088944,-0.0054429602179581,-0.0005449605389699,-0.0001398428919844,0.0,-0.0014407647276102,-0.0039064236452972,0.0062592116358464,-0.0010313435905079,-0.0073626216431294,-0.0025526716936823,-0.0069590122478496,0.006624787762438,0.0019559592529498,0.0029001802313256,-0.0013079087233729,0.0013958956399993,0.0,0.0003523708293965,0.0014732684913942,-0.0028031819822538,-0.007183234919974,0.0002906410196532,-0.008208434991628,0.0,-0.0009427692918415,-0.0069539846756764,0.0031916683257393,0.0033650096356078,0.0019725249224292,-0.0056450511254528,-0.0009385979891705,0.0,-0.0086914352310179,-0.0041138019321456,0.012276561696932,0.0009812394265692,-0.0032476086162473,0.0101145969260406,0.0035906200573846,0.0042434806367396,6.88128367534441e-05,-0.0006269684511897,0.0015074733729118,-0.0001199646809647,-0.0050654925949134,0.0058537752029394,-0.0023693458070079,0.0019566836045796,0.009810448789431,0.0016613141021088,0.0,-0.0048448319783093,0.0053050535344149,0.0067409877681561,-0.0084861268798411,-0.0090344983158317,-0.0016987875212961,-0.009615376917603,0.003651867456585,-0.001337957311081,0.0014923474110053,0.001511363459043,0.000510886681153,-0.001837602965417,0.003670273818738,0.0,-0.0041681837094804,0.0075447674001744,-0.0035293865801172,0.0044965476850148,0.0,-0.0018019628945315,0.0087496149731795,0.005947112328584,-0.0043192439627957,0.0063505353198651,0.005900332738172,0.0021144920943955,-0.0012576621580391,-0.0062333473741531,0.0012408605685047,0.0090240225192035,-0.0069712198062615,0.0012638115931069,-0.0054099399027421,-0.004475490284476,-0.0128208959276389,0.003051695069963,0.001137320493944,-0.0001158264930183,0.0042750522049223,-0.0022120885849476,0.0061258791244381,0.008177308048243,-0.0039441405807938,0.0005751136899392,0.0095663890330992,0.0043177443085294,0.0071323881398062,-0.0025958299154841,-0.0126294795020966,-0.0067381914222207,0.0045973926244915,-0.0011375659192383,-0.0026595360022611,0.0046778548661578,0.0043208952766318,0.0,0.0008220991022031,0.0,-0.000381513909333,0.0060864340478327,0.0034552611507336,0.0031609775206188,-0.0034247955063068,-0.0025497725812706,0.0058753141860799,-0.0049713651343592,0.0054404894741373,0.0083148126013183,-0.0034227825212696,0.0033447013238006,-0.0051872793871803,0.001302831946253,0.0044757967016663,-0.0059120829440637,-0.0198142081958373,0.0029403247361891,0.0068294094384683,-0.0007924911915593,-0.0088810276063739,-0.0150910621922805,-0.0126936615730472,0.0068386654597814,0.0001997618681165,-0.0083976698493945,0.0029759310230201,-0.0041647275096281,0.0,0.0016388967099429,-0.0005083352449746,-0.0010900378921374,-0.0004035087910056,0.0028364128640107,-0.014511029494153,0.0025783051542218,0.0017915518131517,0.004941422258028,0.0067378779892485,-0.0009513276497152,0.0028141271618317,-0.002899689165341,-0.0198109729084418,0.0065424793053856,0.0001260183597724,0.0039561379722281,0.0,-0.0075115786183152,0.0048581046230337,0.0025079958990735,0.003509879453114,-0.0006612916485915,0.0058602265277553,-0.0034582448514989,0.0003739127591472,-0.0025887361189213,-0.0031134560506497,-0.0030251063782103,-0.0051131611318628,0.0018308007500696,-0.0004568869477677,0.0080538898925574,0.0006597918525599,-0.0006350307210381,0.0013453428121453,-0.0021557941398864,0.0016325525632464,-0.0074644877393505,0.004734896941956,-0.0090928119694434,0.0025039735633498,0.0035902317834068,-0.0055786143579469,0.0032687417592215,0.0118734745741527,0.000120814671837,0.0018956849889391,-0.0014900431919987,-0.0067205424974681,-0.0148755721108109,0.0038915849048731,0.0021617443667246,0.0037386090748933,-0.0068623035828167,0.0017577872115816,0.0015045912809774,0.0113368292092664,-0.005470009085158,0.0009489130852751,-0.0077181583202463,0.0074648806379385,0.0005090372746179,0.0036654475908788,-0.0092833902480568,-0.0066203652469703,-0.0060771759883861,-0.0045655127850109,-0.001148990302378,0.0017378202531715,0.0007943755356497,0.0030475814843545,-0.0016924565590221,0.0015912369472321,0.0015863698590152,0.0070114575964851,0.0001632938266756,0.0028376702980274,0.003923852148198,0.0010534358808343,0.002384587202716,-0.0112743628008932,8.752808715832901e-05,-0.0064487146698385,-0.0088487077002245,-0.0024976375160391,-0.0022499571254639,0.0125017262939954,-0.0006642638867535,-0.0013264359705675,0.0125976793493707,-0.0062367011732851,-0.0128392230527898,0.0010202398406275,0.0072517831170638,0.0012347865062533,-0.0006988498060568,0.0027851691679888,0.0050639468067761,-0.0058805510795027,0.0030758124649036,-0.0002439336533265,0.0,-0.0031493358963454,-0.0040224484880108,-0.0069077538429438,-0.003773915419754,0.0191321249648461,0.0047938625979622,0.0099475069744187,-0.0023532983508271,-0.0022813397139599,0.0104899224532163,-0.0005046559701387,0.0037815919714072,0.0002742786589455,0.0014190006030316,0.0,0.009233963482816,0.0039953587237359,0.0022997120324823,-0.0003686203218913,0.003148642045453,0.0,0.0041910356316829,0.0034831442528638,0.0068866828877741,0.0144857860641238,-0.0014296043467625,-0.0051015561437602,-0.0040370546685821,-0.0018800348271026,0.0004644821422127,-0.0023643731418257,-0.0082532163516432,-0.0011571823578484,-0.0023078935645723,0.0103406124922544,0.0057503108051573,-0.0021423471294922,0.0079359810694499,-0.0068984048298249,-0.0037985026425187,-0.0021850248780613,-0.0060157812786629,-0.0097177931927299,-0.001669931587044,-0.0005654201489427,0.0069492199586116,-0.004758013536444,0.0153450859420852,0.0030792378118341,0.0033760786486597,0.0001589185352066,0.0,0.0022036545947073,-0.0001101878050508,-0.0020319304772188,-0.0059105544864268,0.0006363468981391,0.0086272086268964,0.0017450181402843,0.0095627968037542,-0.0004910277645258,-0.0036836904407989,0.0,0.0079432547207112,0.0010507601716357,0.0036890004020838,-0.0056302182907971,1.4163267099510173e-05,-0.0018424033988063,0.0017049389108963,-0.0054843064839556,0.0004494476574774,-0.0018751731281728,0.0122043862616544,0.0007184087087187,-0.0079030144498173,0.0034622200959368,0.0112809754833596,-0.0016178594140103,-5.5320456019935096e-05,-0.002326369966542,0.0013704950772256,-0.0038723222583891,-0.001470247136949,-0.0076575441071367,-0.0022811289504175,-0.0057939473732629,0.0020604714207444,0.0104075031580147,-0.0012050781969303,0.001388521584802,-0.0013681909222746,0.0124318743367675,-0.001460664859706,0.0007263755939557,-0.0004815289813294,0.0075921208983572,-0.0007550427432475,-0.0052871722436598,0.006588505922313,0.000720581883549,-0.0058583907783846,-0.0099664631039529,-0.004464787839309,-0.0043448288709822,-0.0006444781665158,-0.0055809602421788,-0.0063048130013647,-0.0124255667335795,0.0009100816340847,-0.0035906266004662,0.0009544933072109,0.0013567019007907,0.0057343102474246,0.0038279461650098,-0.0028388028116451,-0.0027309232805703,0.0079219647424109,-0.0016294358018457,-0.0028697172809119,0.0029119990562201,-0.0005180664782828,-7.64703253554307e-05,-0.0020700253943792,0.0010156607278437,-0.0003611380603591,-0.0037452293333739,-0.0010468906518474,-0.0038524065968605,0.0025038357776896,-0.0018618220385714,-0.0110409274942932,-0.0017147603533921,0.0031965068545493,-0.0025244990162418,0.0008656317104397,0.0029316267127278,-0.0031894876681786,0.0001808939840953,0.0014525339306311,-0.0003629679677972,0.0023070932412558,0.0062003807723352,-0.0028841799026525,0.0014505415531412,0.0,-0.0088792124536229,-0.0049267820413527,0.0,-0.0007072531944801,0.0110667577645741,0.0,-0.0014460239396727,0.003463881599299,0.0002582881082662,-0.0045890752873724,-0.0021696355199293,0.0156363713120546,-0.0088814391143408,-0.0018579078848331,0.001944200736172,-0.0029495026813311,0.0025428584548666,0.0,-0.0016539591731292,0.0082752025590722,-0.0041108542364117,0.0,-0.0002017334163723,-0.0058301277133934,-0.0002353763324264,-0.000164767045278,-0.0090308467777668,-0.0071832921223786,0.0051169713125235,0.0028967047961714,0.0006418829270214,0.0024897372123348,0.0,-0.0064748940065712,-0.0052796918990839,-0.0005571709034559,-0.003454681521118,0.0034759665046963,0.0040178538718228,-0.0004928954771374,-0.0071796142584248,0.0,-0.0068787648895819,0.0006608109433858,-0.0147655328073068,0.0035621492043193,-0.0045336258711823,0.0018765615005295,0.0037047858164695,-0.0005596231133926,0.0026124412556598,-0.0017078813555796,-0.0002297290959942,0.0033990026372743,7.266892648248699e-05,-0.0004946562952804,-0.0079236524570857,0.00262158796436,0.0051719634027449,0.0063683023884542,0.0015363755913175,2.3992424552104376e-05,0.0029195263985789,-0.0048553900863141,-0.0030568261530744,-0.0002810426683531,-0.0027439707549731,-0.0006044986653993,0.0016196272302069,-0.0103552440772525,0.009045585883093,-0.009842598043564,-0.0019486395513513,0.0,-0.0038163431789141,-0.0036806655599394,0.0103502377142135,-0.0002354286809927,0.0,0.0051832167493237,-0.0059349276226979,0.0051092066175681,-0.0019680172203135,0.0057620817684232,-0.0045615828864992,-0.0039058727758401,-0.0036642125891479,0.0160399636543926,-0.0061504626538045,0.0,0.0144635172494694,0.0,-0.0119181251383037,-0.0015049257868745,-0.0050200435724165,-0.0063916280497579,-0.0086325582256258,0.0078408882107528,0.0,-0.0043058665523894,0.0002290639288523,0.0139927651297287,-0.0080395287693464,-0.0058288987678247,-0.0040117368325717,-0.0044405158529004,0.002197117007282,0.0002244370125339,-0.0046742555948148,-0.001199673176542,0.0008015562489212,0.00318380429694,0.0130081210650275,0.0049428859745009,0.0018064710119635,0.0018617773055858,-0.0010920750474461,-0.0131284172400198,0.0076253920457236,-0.0051374058900901,-0.0130436365330669,0.0092678403310922,-0.0016156507915911,-0.0071683692330496,-0.0049241539722328,0.0074517613865577,0.0,0.0028710132542337,-0.0015468154991028,-0.0085282934573498,-0.0011561631384543,-0.0041242088940229,-0.0037862733125585,-0.0081451526794955,0.0,-0.0019535971354613,-0.0002254943267896,0.0015974365937863,0.0007051544496464,0.007704960268402,-0.0021307953487491,0.0,-0.0020594848943813,-0.0012067864717403,-0.0019864843731967,-0.0050025552233155,-0.0061268579014598,0.0016876863677655,-0.0026333502574051,0.0017411091115626,0.0,0.0004374664154655,-0.00166865686088,0.0,0.0,-0.0153785205052101,0.0061942166933269,-0.0125253073839077,-0.0043991115751497,-8.674715641282088e-06,-0.0024187732473701,0.0013985145396538,0.0107583467988464,0.0,-7.384379464088203e-05,-0.0022818278644606,-0.0023220450542315,0.0086265191594503,-0.0024933237116665,0.0025072058593516,0.0011109261290838
cog_total_mesa,0.0417737,-0.1426914939997135,0.0576916935966792,0.0,0.0,0.0,0.0,0.0,0.0,0.0,0.0,0.0,0.0,0.0,0.0,0.0,0.0,0.0,0.0,0.0,0.0,0.0,0.0,0.0,0.0,0.0,0.0,0.0,0.0,0.0,0.0,0.0,0.0,0.0,0.0,0.0,0.0,0.0,0.0,0.0,0.0,0.0,0.0,0.0,0.0,0.0,0.0,0.0,0.0224909108691359,0.0,0.0,0.0,0.0,0.0,0.0,0.0,0.0,0.0,0.0,0.0,0.0,0.0,0.0,0.0,0.0,0.0,0.0,0.0,0.0,0.0,0.0,0.0,0.0,0.0,0.0,0.0,0.0,0.0,0.0,0.0,0.0,0.0,0.0,0.0,0.0,0.0,0.0,0.0,0.0,0.0,0.0,0.0,0.0,0.0,0.0,0.0,0.0,0.0,0.0,0.0,0.0,0.0,0.0,0.0,0.0,0.0,0.0,0.0003141076253963,0.0,0.0,0.0,0.0,0.0,0.0,0.0,0.0,0.0,0.0,0.0,0.0,0.0211851198421026,0.0,0.0019698979285501,0.0,0.0,0.0,0.0,0.0,0.0,0.0,0.0,0.0,0.0,0.0,0.0,0.0,0.0,0.0,0.0,0.0,0.0,0.0,0.0,0.0,0.0,0.0,0.0,-0.0169651741489005,0.0,0.0,0.0,0.0117262362166079,0.0,0.0,0.0,0.0,0.0,0.0,0.0,0.0,0.0,0.0,0.0,0.0,0.0,0.0,0.0,0.0,0.0,0.0,0.0,0.0,0.0,0.0,0.0,0.0,0.0,0.0,0.0,0.0,0.0,0.0,-0.0364395655427588,0.0,0.0,0.0,0.0,0.0,0.0,0.0,0.0,0.0,0.0,0.0,0.0,0.0,0.0,0.0,0.0,0.0,0.0,0.0,0.0,0.0,0.0,0.0,0.0,-0.0043769453917556,0.0,0.0,0.0,0.0,0.0,0.0,0.0,0.0,0.0,0.0,0.0,0.0,0.0,0.0,0.0,0.0,0.0,0.0,0.0,0.0,0.0,0.0,0.0,0.0,0.0,0.0,0.0,0.0,0.0,0.0,0.0,0.0,0.0,-0.0067041487038538,0.0,0.0,0.0,0.0,0.0,0.0,0.0,0.0,0.0,0.0,0.0,0.0,0.0,0.0,-0.0249527340342883,0.0,0.0,0.0,0.0,0.0,0.0,0.0,0.0,0.0,0.0,0.0,0.0,0.0,0.0,0.0,0.0,0.0,0.0,0.0,0.0,0.0,0.0,0.0,0.0,0.0,0.0,0.0,0.0,0.0,0.0,0.0,0.0,0.0,0.0,0.0,0.0,0.0,0.0,0.0,0.0,0.0,0.0,0.0,0.0,0.0,0.0,0.0,0.003108639955213,0.0268786711603922,0.0,0.0,0.0,0.0,0.0,0.0,0.0,0.0,0.0,0.0,0.0,0.0,0.0,0.0,0.0,0.0,0.0,0.0,0.0,0.0,-0.0125192390418574,0.0,0.0,0.0092154423821844,0.0,0.0,0.0,0.0,0.0,0.0,0.0,0.0,0.0087428506474917,0.0,0.0,0.0,0.009983148108647,0.0,0.0,0.0,0.0,0.0,0.0,0.0,0.0,-0.0507396217599261,0.0,0.0,0.0,0.0,0.0,0.0,0.0,0.0,0.0,0.0,0.0,0.0,0.0,0.0,0.0,0.0,0.0,0.0,0.0,0.0,0.0,0.0,0.0,0.0,0.0,0.0,0.0,0.0,0.0,0.0,0.0,0.0,0.0,0.0,0.0,0.0,0.0,0.0,0.0,0.0,0.0,0.0,0.0,0.0,0.0,0.0190993120514762,0.0,0.0,0.0,0.0,0.0,0.0,0.0,0.0,0.0,0.0,0.0,0.0,0.0,0.0,0.0,0.0,0.0,0.0,0.0,0.0,0.0,0.0,0.0,0.0,0.0,0.0,0.0,0.0,0.0,0.0,0.0,0.0,0.0,0.0,0.0,0.0,0.0,0.0,0.0,0.0,0.0,0.0,0.0,0.0,0.0,0.0,0.0,0.0,0.0,0.0,0.0,0.0,0.0,0.0,0.0,0.0,0.0,0.0,0.0,0.0,0.0,0.0,0.0,0.0,0.0,0.0,0.0,0.0,0.0,0.0,0.0,0.0,0.0,0.0,0.0,0.0,0.0,0.0,0.0,0.0,0.0,0.0,0.0,0.0,-0.0205489206167944,0.0,0.0,0.0,0.0,0.0,0.0,0.0,0.0,0.0,0.0,0.0,0.0,0.0,0.0,0.0,0.0,0.0,0.0,0.0,0.0007116369169024,0.0,0.0,0.0,0.0,0.0,0.0,0.0,0.0,0.0,-0.0035931122915363,0.0,0.0,0.0,0.0,0.0,0.0,0.0,0.000486189660183,0.0,0.0,0.0,0.0,0.0,-0.0108192214009539,0.0,0.0,0.0,0.0,0.0,0.0,0.0,0.0,0.0162017540135324,0.0,0.0,0.0,0.0,0.0,0.0,0.0,0.0,0.0,0.0,0.0,0.0,0.0,0.0,0.0,0.0,0.0,0.0,0.0,0.0,0.0,0.0,0.0,0.0,0.0,0.0,0.0,0.0,0.0,0.0,0.0,0.0,0.0,0.0,0.0,0.0,0.0,0.0,0.0,0.0,0.0,0.0,0.0,0.0,0.0,0.0,0.0,0.0,0.0096932319323976,0.0,0.0,0.0,-0.0828758462696011,0.0,0.0,0.0,0.0,0.0,0.0,0.0,0.0,0.0,0.0,0.0,0.0,0.0,0.0,0.0,-0.0582314269665252,0.0,0.0,0.0,0.0,0.0,0.0,0.0,0.0,0.0,0.0,0.0,0.0674690222998049,0.0,0.0,0.0,0.0,0.0,0.0,0.0,0.0,0.0,0.0,0.0,0.0,0.0,0.0,0.0,0.0,0.0,0.0,0.0102754217330775,-0.062267604892639,0.0,0.0,0.0,0.0,0.0,0.0,0.0,0.0,0.0,0.0,0.0,0.0,0.0,0.0,0.0,0.0,0.0,0.0,0.0,0.0,0.0,0.0,0.0,0.0,0.0,0.0,0.0,0.0,0.0,0.0371281154778643,0.0,0.0,0.0,0.0,0.0,0.0,0.0,0.0,0.0,0.0,0.0,0.0,0.0,0.0,0.0,0.0,0.0,0.0,0.0,0.0,0.0,0.0,0.0,0.0,0.0,0.0,0.0,0.0,0.0,0.0,0.0,0.0,0.0,0.0,0.0,0.0,0.0,0.0,0.0,0.0,0.0,0.0,0.0,0.0,0.0,0.0,0.0,0.0,0.0,0.0,0.0,0.0,0.0,0.0,0.0,0.0,0.0,0.0,0.0,0.0,0.0,0.0,0.0,0.0,0.0,0.0,0.0,0.0,0.0,-0.0028109330696748,0.0,0.0,0.0,0.0,0.0,0.0,0.0,0.0,0.0,0.0,0.0,0.0,0.0,0.0,0.0,-0.0302548568834188,0.0487145645573227,0.0,0.0,0.0319436865506237,0.0,0.0,0.0,0.0,0.0,0.0,0.0,0.0,0.0,0.0,0.0,0.0,0.0,0.0,0.0,0.0,0.0,0.0,0.0,-0.0285956105981696,0.0,0.0,0.0,0.0,0.0,0.0,0.0436719064716334,0.0,0.0,0.0,0.0,0.0,0.0,0.0,0.0,0.0,0.0076451108962911,0.0,0.0,0.0,0.0,0.0,0.0,0.0,0.0,0.0,0.0,0.0,0.0,0.0,0.0,0.0,0.0,0.0,0.0,0.0,0.0,0.0,0.0,0.0,0.0,0.0,0.0,0.0,0.0,0.0,0.0,0.0,0.0,0.0,0.0,0.0,0.0,0.0,0.0,0.0,0.0,0.0,0.0,0.0,0.0,0.0,0.0,0.0,0.0,0.0,0.0,0.0,0.0,0.0,0.0,0.0,0.0,0.0,0.0,0.0,0.0,0.0,0.0,0.0,0.0,0.0,0.0,0.0383746987485221,0.0,0.0,0.0,0.0,0.0,-0.0080857319580392,0.0,0.0,0.0,0.0,0.0,0.0,0.0,0.0,0.0,0.0,0.0,0.0,0.0,0.0,0.0,0.0,0.0,0.0,0.0,0.0,0.0,0.0,0.0,0.0,0.0,0.0,0.0,0.0,0.0,0.0,0.0,0.0,0.0,0.0,0.0,0.0,0.0,0.0,0.0,0.0,0.0,0.0,0.0,0.0,0.0,0.0,0.0,0.0,0.0,0.0,0.0,0.0,0.0,0.0,0.0,-0.0043052697235182,0.0,0.0,0.0,0.0,0.0,0.0,0.0,0.0,0.0,0.0,0.0,-0.0054125407911942,0.0,0.0,0.0,0.0,-0.0155304058026217,0.0,0.0,0.0,0.0,0.0,0.0,0.0,0.0,0.0,0.0,0.0,0.0,0.0,0.0,0.0,0.004463045867355,0.0,0.0,0.0,0.0,0.0,0.0,0.0,0.0,0.0,0.0,0.0,0.0,0.0,0.0,0.0,0.0,-3.410662077063709e-05,0.0,0.0,0.0,0.0,0.0,0.0,0.0,0.0,0.0,0.0,0.0,0.0,0.0,0.0,-0.0227138499440255,-0.02242070560351,0.0,0.0,0.0,0.0,0.0,0.0,0.0,0.0,0.0,0.0,0.0,0.0,0.0,0.0,0.0,0.0,0.0,0.0,0.0,0.0,0.0,0.0,0.0,0.0,0.0,0.0,0.0098520472540493,0.0,0.0,0.0,0.0,0.0,0.0,-0.008407538851803,-0.0062230153024309,0.0,0.0,0.0
cog_fluid_fhs,-0.00048714,-0.007552125736988,-0.0104404607954355,0.0,0.001733665020035,-0.0002739199498609,-0.0003648646731254,0.0,-0.0012954454400188,0.0014798991338998,0.0043483895660132,0.0005897131686976,0.0018399055039064,0.0012781931174736,0.0014032634662488,0.0,-0.0015424872594955,0.0,0.0002937564259983,0.0,0.0,-0.0005669516564723,3.576037833188234e-05,-0.0010297659330971,-0.0011492285971898,0.0007933095767733,0.0008850562821929,0.0029983800544026,-0.0022278009759416,0.0003928536011404,0.0016848282367646,0.0,0.0,0.0002907940889504,-0.001781448313421,-0.001460446826741,0.0,0.0,0.0,0.0004501919933023,0.004483061606412,-0.0029448236863184,0.0,0.002661559925978,0.00460006536056,-0.0002476517438173,-0.0008762228506353,0.0,-0.0004515321595637,-0.000870196159295,0.0003905952466509,-0.0006092777315533,0.0004734186125175,0.0,0.0007947188841355,0.0002953392038484,0.0002819363265336,0.0,-0.0003178886884907,-0.0006243646636341,-0.0006260570900879,0.0,0.0,0.0010775757898881,0.0,-0.0016429827975945,-0.0012265928584137,0.0001678932460545,0.0002945880784743,0.002001697685803,0.0015555721592048,0.0,-0.0002587733155517,-0.0004925603952392,-0.001030418258306,0.0015115800709742,0.0003415795234676,-0.001440674006399,0.0015179122488393,0.0003887298236034,-0.0004305303576947,0.0,0.0,0.000339894815087,-0.0022894705379162,0.0,0.0019149288159987,0.0023244000648157,0.0050694448492076,-0.0008218814174503,0.0017236118496291,0.0050764694911262,6.829295270007244e-05,0.0,-0.0005480011462596,0.0006736405577548,-0.0004271142068181,0.0,0.0,0.0007984776502788,0.0019114103712496,1.5642248301456967e-06,-0.000200330843517,0.0002705033488086,0.0,0.0,-0.0005445008566392,-0.0022827577605843,0.0004292525918648,0.0007956455548509,-0.0025966847807758,0.0,-0.0024247607303924,-0.0005333869784981,0.0022306829569695,0.0034937654198996,0.0,0.0001884750653757,0.0002793880339897,0.0004847370926041,0.0052750927361823,0.0017050965276172,0.0,0.0010966940398338,0.0020557778399709,0.0003307225453846,0.0002141393849403,0.001426609423799,0.0023988876926952,0.0,-0.0037813656820595,0.0004918456331641,-0.0008114026131379,0.0,0.0022223906679394,0.0004750023053129,0.0024636406077015,0.0012117373365993,0.0017933701593461,0.0001542875014968,-0.0017811695893318,-0.0001843018414805,0.0010675194545728,-0.000668650858479,-0.0023287307778868,0.0023953037963511,-0.001649746601511,-0.0036940277077016,-0.0002549694954083,7.523233654921894e-05,0.0,-0.0002281919093533,0.0027700122881469,0.0002240034403789,0.0043109593009945,0.0004343580786095,-0.0035226176732375,0.0017515560204707,-0.0011634197173231,0.001865228351113,-0.0008640888764236,0.0,-0.0015030870834054,-0.0003653645761882,-0.0018737195931263,-0.0008928514441536,0.0,0.0001729550855619,-0.00210709982125,0.0009269546489657,0.0023983127286093,0.0046973406400674,0.0,-0.0006893802634766,0.0024601488158527,0.0,-0.0005000090876785,0.0030504463603242,0.004478941878749,0.0007189845739293,-0.0059224956875774,-0.0010354367825629,-0.0047535315336051,0.0,0.0009338439372482,-0.001570588991353,-0.0004172443606071,0.0019557427163076,-0.0017994336168136,-0.0003336851445483,0.0005910468421057,0.0005550360108256,-0.0009179595170402,-0.0024361702045145,-0.0003896973581202,0.0,0.0021387627010134,0.0015898882393066,-0.0008690559177434,-0.0032513496948133,-0.0015798140752198,0.0,0.0,0.0008138791100079,0.0008302606443721,0.0,-0.0042093590803585,0.0,0.0017957628077333,-0.0017327746134457,0.0006382551501244,0.0017694387932409,0.0004349741749292,-0.0008034749651022,-0.0006365064525459,0.0,-0.0043829915333164,0.0,0.0,-0.0017536786538334,0.0021864356427934,0.0016565940801424,0.0006834174227088,0.0,0.0,-0.0010544819273993,0.0021015618454573,-0.0011720579698243,0.0059532442620879,0.0,0.0006124932337261,0.0017272756176919,-0.0037945997649695,0.0019194298535877,0.0004425729692378,0.0011879903094513,0.0,0.000972454510925,0.0022370892296456,0.0025053403576431,-0.0029725356837504,-0.0018848952601406,-0.0017446712747141,0.0030745850765707,-0.0007831859440316,0.0029223656235246,-0.000693496048775,0.0,-0.0049213694395398,0.0035491355964641,0.0009175218957919,-0.0048785259446094,-0.0021678008273052,0.0025718773513751,-0.003384770006778,0.00087043580184,-0.0016788189880239,0.0,-0.0023531937626146,-0.0003510021671534,0.0,0.0,-0.0033876421824126,-0.0022557246180146,0.00285644656582,0.0,0.0033850984480413,0.0,-0.0021808866458408,-0.0002966530143075,0.0016775213459391,0.0015427362725779,0.0018189498616774,0.0020447071367108,0.0,0.0022446542970142,0.0006974000911883,0.0009252062606606,0.0008382830592989,0.0013750242792921,0.0040822897339868,-0.0017103401730991,-0.0006856339969109,0.002535347890411,-0.000564438150874,-0.0002624199834622,0.0038039486734072,-0.0056253980601464,-0.0008142697511403,0.0,0.0002982798161466,0.0,0.0001482169784593,0.0,-0.0054292457595644,0.0065961940163042,-0.0015662491152144,-4.243110802025417e-05,0.0,-0.0028739055117866,0.0,0.0030059127975215,0.0019133272629189,-1.618356840469112e-05,0.0017581462271613,0.0039329369296188,-0.0017582549578796,0.0001776241391264,0.0,-0.0001836549808306,0.0030506687348003,-0.0027124990650818,0.0020758940646813,0.0,-0.0017768322319144,0.0,0.0,0.0,0.001273168973433,0.0,-0.0011728307855928,-0.0067229044503362,-0.0002094258461929,-0.0023823215890877,-0.0015263386026569,0.0013814721534851,-0.0015191394542897,0.0012852699611878,-0.0023781700535757,0.0015733704354411,-0.0031133930107708,-0.001556544824399,0.0005685837366982,0.0,0.0005728643519529,0.0,-6.874331556994134e-05,-0.000926992341007,0.0022582908717946,-0.0010786407111013,-0.0015358348144741,0.0,0.0,3.797113938763886e-05,0.0001387454598579,0.0,-0.0006655140789194,0.0015975248276444,0.0,-0.0013603954150442,-0.0017027793990664,-0.0034094629466939,0.002606625774175,-0.0010220051937152,0.0001694173108999,0.0,0.0008652256011404,0.0,-7.428278445422592e-05,0.0012287949557335,9.205586472932897e-05,0.0020161854374191,0.0,0.0004036976797719,-0.0038208003979827,0.0013414219730866,0.0,0.0,0.0,0.0,-0.0003495654674483,6.3241008775456085e-06,-0.0015334201299002,-0.0009324803313911,0.0,-0.0006027848966985,-0.0031441959524962,0.0005439283279595,-0.0001700597230114,0.0,-0.000569235485706,0.0,0.0,0.0,0.0015454436158785,0.0031314753016556,-0.0015729358031797,0.0,0.0,0.0015881690245906,5.8325508320383095e-05,0.0002409088192581,0.0005289085538234,-0.0032863007430372,0.0005073103667103,0.0,-0.007034552733651,8.496763539316193e-05,0.0017778405577376,0.0,1.4713942877137602e-05,0.0,-0.0029096954616705,0.0006802437985727,0.0,0.0010628712425461,0.0005999713724486,0.0031167455805025,0.0021479315890598,-0.0021941402348486,-0.0009835996698308,-0.0001382245432331,-0.0015830437584681,-0.0004932713743419,-0.0017786392239081,0.0,0.0024727456748122,-0.0002119851341397,0.0005067598721235,-0.0028218115746882,0.0,7.81603570396074e-06,-0.0020642559730637,0.0,5.059305251540456e-06,0.0,0.0,-0.0009190752231252,-0.0009111651598403,0.0,-0.0025819651740866,0.0,0.0007308162979665,0.001303479131995,-0.0005846185444653,-0.0004272703967042,0.0,0.0002682660409486,-0.0003211935839339,0.0,0.0,-0.0057666310690313,-0.0004601616137759,-0.0010652021741543,-0.0004585607512369,0.0033321705804159,-0.0004113841898452,0.0002669927560304,0.0025611775610356,0.0021128610973048,0.0,-0.0010707447812592,0.0,-0.0007198566672449,0.0043000966216672,0.0,0.0021045534733087,-2.6691548836170412e-05,-0.0017190012106708,-0.0005563837673453,3.37327674737878e-05,-0.0005772061814467,0.0038599467111637,0.0005937435388046,0.0007138293743398,0.0,0.0,0.0,0.0001862624277435,0.0,0.0,0.0007777330756043,-0.0004346105396769,-0.004354592905839,-6.569693628496365e-05,0.0025923432043722,0.0029547849299222,0.001287368865624,-0.0019926226892904,0.0032856623227757,0.0012143075059194,0.0005411102123989,0.001099615318614,-0.0023472072090096,0.0,-0.0043845746478442,0.0,0.0011494089207078,-0.0012609873712386,0.0014321748086371,-0.0034820117462012,-0.0005125856433988,0.0,0.0,0.0037514995764664,0.0,0.0020123110323064,0.0,0.0,0.0002644764463985,0.0,-0.0022411295413662,0.0021228771911975,-0.0024025491104214,0.0,0.0002099956871984,0.0,0.0013658563848751,0.0,-0.0015424920406249,0.0001398370051045,0.0007343615206669,-0.0012949064358281,-0.0010947824139091,0.0,0.0018415386857721,0.001524886744026,0.0,0.0005234351719543,0.0001972405968537,0.0033044492528066,0.0,-0.0023629170044878,-0.0011113799189598,0.0032560270016576,0.0004415897751416,0.0005423890811988,-0.0010708095846103,0.0,0.0023928676094782,0.0021448768526622,0.0,-0.0014351948169848,-0.000144851797949,-0.0009577510543112,0.0016884164839228,0.0009836417972914,-0.0014768176568245,0.0006164163080857,0.0,0.0006716891408965,0.0002351826679772,0.0,0.0015601360787985,0.003157898254143,-0.001198639004451,0.0011259709040485,0.0014610538562973,0.0,0.0,0.0017841377351525,-0.0001575051057795,-0.0015582822011231,0.0,-0.0088703265859776,0.000739239127105,-0.0010820673075551,0.0014707051803644,0.0008401708999566,0.0,0.0,0.0002853004875275,0.0001874780266703,0.0,0.0016877465461843,-0.0029042796137757,0.0030246225732426,-0.0059200383909801,-0.0007290751249999,0.0,0.0,0.0016687552178488,0.0,-0.0016857802242625,0.0,0.0009082552401172,0.0,-0.0019555864594539,0.000190862831028,0.0,0.0029582366775057,0.0018742105435378,0.0,-0.0013452346423101,0.0036798722462921,0.0,0.0031627059936355,-0.0020741991752612,-0.001494891534298,0.0033611523420687,0.0009578629865838,-0.0029415212875013,-0.0009235017024309,0.0020126034050984,-0.001662095665551,-0.0006705351465518,0.0015825190570889,0.0,0.0,-0.0017965447792301,-0.0013565871142688,-0.00218009000214,0.0,-0.0008825394076591,0.0,-0.0002111738918002,0.0041243198140398,-0.0007207328031858,-0.0006096937334657,0.0,-0.000424051822178,-0.0003915851543648,0.0015067206502563,0.0014227150134818,-0.0002400624041794,0.0027504411143366,0.0006594539319828,0.001990430720523,-0.0020630396183924,0.0016334241358525,-0.0034909484366985,-0.0008517708786898,0.0,0.0,-0.002620448685073,-0.0064788086393809,-0.0007402470183373,-0.001294232171053,0.0002777709600366,0.0,0.002266122531169,0.0,-0.0011453702619535,-0.0046046366183186,-5.197359204779501e-05,0.0,-0.0083197332671008,0.0,0.0008369952280992,0.0019021832689111,0.0,-0.0005554720708842,0.0,-0.0040964656808802,-0.0026243532249349,-0.0027530153314568,-0.0014431091758789,0.0021580336385643,-0.0006687513513741,-0.0004353515985814,0.0012066344510018,-0.0004505624937874,0.0003022245098349,0.0078743009576082,0.0005623675103951,0.0009763022395144,-0.0010680257058077,0.0,-0.0015764017226428,0.0008991337771038,3.946861845968235e-05,0.0021164143037146,0.0005386790735522,0.0001741253451663,0.0017144780257172,0.001581698444969,0.0008410658125712,0.0032403443504905,0.0032141428326415,0.0001424808246323,0.0012204174876396,0.0,0.0,0.0,0.0013892771790706,0.0003421551006088,0.0,0.0,0.0028318575902418,-0.0006498884440418,-0.0003969554853111,-0.0015954747171238,-0.0020063218390821,-0.0022151330564783,0.0008953421404582,-0.0002990879858307,-0.0024768640241678,0.0006735081459981,-0.0021703161163921,0.0,-0.0001830676154905,0.0001615493388357,0.0037505423247753,0.0,0.0,0.0020742790724525,0.0011263534970697,0.0,-0.0008628874204776,-0.0047228530917648,0.0,0.0061812623851721,0.0029097262068498,0.0,0.0032440063455083,-0.0010782236093381,0.0002365554596381,0.0,0.0,0.0,0.0,0.0,0.0005884257494642,0.0,-0.0007641010105866,-0.0003673185935483,-0.0007470109716472,0.0001189539130091,-0.0007324746312274,0.005036502168239,0.0003775513467739,-0.0004951896667158,0.001837654090663,0.0,0.0,0.0007271734423025,0.0004984124907018,-0.0002057085801824,0.0012309484362818,0.0037597395476697,0.0,0.0,0.0011913923866348,0.0004540793497937,0.0,0.0,-0.0011157988392136,-0.0036072764838182,-0.000423257101474,0.0022869187965655,-9.919151124441744e-05,-0.0057321450102925,0.0,8.281833413729652e-05,0.0016470425255964,-0.0018898174000505,-0.0002078757366719,0.0011523398473038,-0.0033314352462565,0.0003807627411012,-0.0001811373240516,-0.0014605843373669,-0.0027267480456018,0.0014293036763475,0.0,-0.0015271228006575,-0.0009551976972249,0.0025911371705116,-0.0001690127017859,-0.000942893011756,-0.0011866994531311,0.0,0.0,0.0008452795148831,-0.0020415134967061,-0.0012868485508887,0.0018981749523346,-0.0022598897726174,0.0009605168808921,0.0016703888349552,0.0012849809898583,0.0013276347845592,-0.0013831800237671,0.0017696199574285,0.0003537561640703,0.0035889159796196,0.0004328953211276,-0.000722527229333,0.0,-0.001140766989056,-0.0015133876908886,0.0,-0.0008042392235813,0.0043951495588989,0.0004831296268136,-0.0040784405631023,0.0,0.0018139572815003,0.0001923836046076,-0.0008585705058386,-0.0014621850965918,0.0,0.0,0.0008140287585757,0.0,0.0022151509182288,-0.0076165490410454,0.0,0.0,0.0029204486680214,0.0,0.0,0.0027977972755686,0.0012276365009858,-0.0007686505973479,0.0020667383213241,0.0020191357630953,-0.0002493465776103,-0.0009722461551175,0.0,-0.0026560785251115,-0.0031683938637595,-0.0034773743301218,0.0057432807561055,8.278623338249135e-05,0.0005661336315186,0.0,-0.0001319127879269,-0.0037352088448813,-0.0003450596149375,-0.0025666582273955,0.0,0.0004585397144348,0.0,0.0015128352845165,0.0,-0.0057489410837434,0.0029217854843421,0.0005955663057465,0.0037405968625719,0.0046639384820913,-0.0013908627462456,-0.0031567895750712,0.0024998468147014,0.0006940999835631,0.000335000555909,0.0,0.0,0.0016399024565555,-0.0019203502022843,0.0010548614625425,-0.000906153818452,0.0019740210270161,-0.0015295358584592,0.0020215245657476,0.0,0.0,0.0003798943737259,0.0035800373142528,0.0002050689328287,0.0012653686726178,0.0,-0.002300723238449,-0.0003001075730185,-0.0018320153140696,0.0001426884094594,0.0007532946661512,0.001736227741454,0.0014700769367076,3.565678855760894e-05,0.0033393649120627,0.0,0.0007827348512401,0.0023320663375679,0.0,0.0,-0.0003437797949154,0.0061548856339511,-0.0028492526266117,-0.000486242885762,0.0,0.0030741431301888,0.0007504139964555,-0.0021428721836334,-0.0010175472517213,0.0049605204390819,0.0001845587023104,0.0,0.0023916173759699,0.0,0.0001104920532866,0.0,0.0,0.0011195995543625,0.001865584219566,0.0014437214201924,0.0,0.0010730574216291,0.001483866747861,0.0013292204514823,0.0015913414794695,0.0,0.0,-0.0007081721675439,0.0,-0.0026912481168181,0.0011593572909018,-0.0002083238502868,0.0,-0.0004463595528604,-0.0046225870085988,0.0,0.0,0.0,-0.0023932380286691,-0.0001532792386888,0.0,-0.0018815627788026,0.0,0.0,-0.0006615982741654,-0.0004517849727061,-0.0039019591935503,-0.004114200125842,-0.0005815413853266,0.0032367316071123,-0.001813917853135,0.001329537507436,0.0020503264562763,0.0036126973111895,-0.0008425938510597,-0.0021463655359832,-0.0006618602176422,-0.0010131663456291,0.000198984970847,-0.0021968410291047,0.0007888766923865,-0.0014877995757394,-0.0002175532978472,-0.0021479136725011,0.0019280726280193,0.0,-0.0014020626875937,0.0007457256051844,0.000956533171449,0.0010991822316652,-0.000533722310117,0.0009773846959762,0.0,0.0001804918446547,0.0042740751004648,0.0,0.0,0.003863288270917,0.0028350872081861,0.0,0.0040026529804711,0.0006402854182459,0.0,-0.0017223743350602,-0.0025688879876111,0.0007130915609383,-0.0057785383207955,0.0024326911813811,0.0003749131955601,0.0,0.0,-0.0002755366542279,-0.0031386602488927,-0.0012844743315432,-0.0006750414189854,-0.0016450128745001,0.0,0.0007137833148342,0.0,-0.0015443798364997,-4.6213414751688415e-06,-0.0021398889393186,0.0004006271489312,-0.0055698035099789,-0.0035331192663113,0.0,-6.280100494055043e-05,-0.0033929205944225,-0.0002870614351325,-0.0016275153484771,-0.0042409047529808,0.0,0.0005681610123192,0.0,0.0019816105412013,0.0058963817112052,0.0,-0.0003603904745599,3.1167260327897085e-05,-0.0006908337745244,0.0006128570920132,-0.0016776886537922,0.0014753900577724,-0.0031136313147809,0.0025663952236082,0.0003637553017728,-0.0005743031808222,-0.000495716706971,0.0,0.0,0.0021754051262731,0.0001017399994246,1.9632532787950457e-05,0.0,-0.0020193311966646,-0.0001265385321301,0.0,-0.0013641586126197,0.0022386080352361,0.0,-0.0009935438590942,-0.0002105944197973,-0.0003071060593797,0.0009874706737046,0.0016446141397925,-0.0039494583878457,0.0041572605590778,-0.0027326950731314,0.0,3.2335318739742094e-05,0.0003712971620644,0.0,-0.0016168761926565,0.0,0.0006187420645557,0.0,-0.0017229857283565,-0.0006249105412131,0.0002807990000354,0.0,-0.0019515098957757
cog_fluid_sof,0.13074613,0.0,0.0,0.0,0.0,0.0,0.0,0.0,0.0,0.0,0.0,0.0,0.0,0.0,0.0,0.0,0.0,0.0,0.0,0.0,0.0,0.0,0.0,0.0,0.0,0.0,0.0,0.0,0.0,0.0,0.0,0.0,0.0,0.0,0.0,0.0,0.0,0.0,0.0,0.0,0.0,0.0,0.0,0.0,0.0,0.0,0.0,0.0,0.0,0.0,0.0,0.0,0.0,0.0,0.0,0.0,0.0,0.0,0.0,0.0,0.0,0.0,0.0,0.0,0.0,0.0,0.0,0.0,0.0,0.0,0.0,0.0,0.0,0.0,0.0,0.0,0.0,0.0,0.0,0.0,0.0,0.0,0.0,0.0,0.0,0.0,0.0,0.0,0.0,0.0,0.0,0.0,0.0,0.0,0.0,0.0,0.0,0.0,0.0,0.0,0.0,0.0,0.0,0.0,0.0,0.0,0.0,0.0,0.0,0.0,0.0,0.0,0.0,0.0,0.0,0.0,0.0,0.0,0.0,0.0,0.0,0.0,0.0,0.0,0.0,0.0,0.0,0.0,0.0,0.0,0.0,0.0,0.0,0.0,0.0,0.0,0.0,0.0,0.0,0.0,0.0,0.0,0.0,0.0,0.0,0.0,0.0,0.0,0.0,0.0,0.0,0.0,0.0,0.0,0.0,0.0,0.0,0.0,0.0,0.0,0.0,0.0,0.0,0.0,0.0,0.0,0.0,0.0,0.0,0.0,0.0,0.0,0.0,0.0,0.0,0.0,0.0,0.0,0.0,0.0,0.0,0.0,0.0,0.0,0.0,0.0,0.0,0.0,0.0,0.0,0.0,0.0,0.0,0.0,0.0,0.0,0.0,0.0,0.0,0.0,0.0,0.0,0.0,0.0,0.0,0.0,0.0,0.0,0.0,0.0,0.0,0.0,0.0,0.0,0.0,0.0,0.0,0.0,0.0,0.0,0.0,0.0,0.0,0.0,0.0,0.0,0.0,0.0,0.0,0.0,0.0,0.0,0.0,0.0,0.0,0.0,0.0,0.0,0.0,0.0,0.0,0.0,0.0,0.0,0.0,0.0,0.0,0.0,0.0,0.0,0.0,0.0,0.0,0.0,0.0,0.0,0.0,0.0,0.0,0.0,0.0,0.0,0.0,0.0,0.0,0.0,0.0,0.0,0.0,0.0,0.0,0.0,0.0,0.0,0.0,0.0,0.0,0.0,0.0,0.0,0.0,0.0,0.0,0.0,0.0,0.0,0.0,0.0,0.0,0.0,0.0,0.0,0.0,0.0,0.0,0.0,0.0,0.0,0.0,0.0,0.0,0.0,0.0,0.0,0.0,0.0,0.0,0.0,0.0,0.0,0.0,0.0,0.0,0.0,0.0,0.0,0.0,0.0,0.0,0.0,0.0,0.0,0.0,0.0,0.0,0.0,0.0,0.0,0.0,0.0,0.0,0.0,0.0,0.0,0.0,0.0,0.0,0.0,0.0,0.0,0.0,0.0,0.0,0.0,0.0,0.0,0.0,0.0,0.0,0.0,0.0,0.0,0.0,0.0,0.0,0.0,0.0,0.0,0.0,0.0,0.0,0.0,0.0,0.0,0.0,0.0,0.0,0.0,0.0,0.0,0.0,0.0,0.0,0.0,0.0,0.0,0.0,0.0,0.0,0.0,0.0,0.0,0.0,0.0,0.0,0.0,0.0,0.0,0.0,0.0,0.0,0.0,0.0,0.0,0.0,0.0,0.0,0.0,0.0,0.0,0.0,0.0,0.0,0.0,0.0,0.0,0.0,0.0,0.0,0.0,0.0,0.0,0.0,0.0,0.0,0.0,0.0,0.0,0.0,0.0,0.0,0.0,0.0,0.0,0.0,0.0,0.0,0.0,0.0,0.0,0.0,0.0,0.0,0.0,0.0,0.0,0.0,0.0,0.0,0.0,0.0,0.0,0.0,0.0,0.0,0.0,0.0,0.0,0.0,0.0,0.0,0.0,0.0,0.0,0.0,0.0,0.0,0.0,0.0,0.0,0.0,0.0,0.0,0.0,0.0,0.0,0.0,0.0,0.0,0.0,0.0,0.0,0.0,0.0,0.0,0.0,0.0,0.0,0.0,0.0,0.0,0.0,0.0,0.0,0.0,0.0,0.0,0.0,0.0,0.0,0.0,0.0,0.0,0.0,0.0,0.0,0.0,0.0,0.0,0.0,0.0,0.0,0.0,0.0,0.0,0.0,0.0,0.0,0.0,0.0,0.0,0.0,0.0,0.0,0.0,0.0,0.0,0.0,0.0,0.0,0.0,0.0,0.0,0.0,0.0,0.0,0.0,0.0,0.0,0.0,0.0,0.0,0.0,0.0,0.0,0.0,0.0,0.0,0.0,0.0,0.0,0.0,0.0,0.0,0.0,0.0,0.0,0.0,0.0,0.0,0.0,0.0,0.0,0.0,0.0,0.0,0.0,0.0,0.0,0.0,0.0,0.0,0.0,0.0,0.0,0.0,0.0,0.0,0.0,0.0,0.0,0.0,0.0,0.0,0.0,0.0,0.0,0.0,0.0,0.0,0.0,0.0,0.0,0.0,0.0,0.0,0.0,0.0,0.0,0.0,0.0,0.0,0.0,0.0,0.0,0.0,0.0,0.0,0.0,0.0,0.0,0.0,0.0,0.0,0.0,0.0,0.0,0.0,0.0,0.0,0.0,0.0,0.0,0.0,0.0,0.0,0.0,0.0,0.0,0.0,0.0,0.0,0.0,0.0,0.0,0.0,0.0,0.0,0.0,0.0,0.0,0.0,0.0,0.0,0.0,0.0,0.0,0.0,0.0,0.0,0.0,0.0,0.0,0.0,0.0,0.0,0.0,0.0,0.0,0.0,0.0,0.0,0.0,0.0,0.0,0.0,0.0,0.0,0.0,0.0,0.0,0.0,0.0,0.0,0.0,0.0,0.0,0.0,0.0,0.0,0.0,0.0,0.0,0.0,0.0,0.0,0.0,0.0,0.0,0.0,0.0,0.0,0.0,0.0,0.0,0.0,0.0,0.0,0.0,0.0,0.0,0.0,0.0,0.0,0.0,0.0,0.0,0.0,0.0,0.0,0.0,0.0,0.0,0.0,0.0,0.0,0.0,0.0,0.0,0.0,0.0,0.0,0.0,0.0,0.0,0.0,0.0,0.0,0.0,0.0,0.0,0.0,0.0,0.0,0.0,0.0,0.0,0.0,0.0,0.0,0.0,0.0,0.0,0.0,0.0,0.0,0.0,0.0,0.0,0.0,0.0,0.0,0.0,0.0,0.0,0.0,0.0,0.0,0.0,0.0,0.0,0.0,0.0,0.0,0.0,0.0,0.0,0.0,0.0,0.0,0.0,0.0,0.0,0.0,0.0,0.0,0.0,0.0,0.0,0.0,0.0,0.0,0.0,0.0,0.0,0.0,0.0,0.0,0.0,0.0,0.0,0.0,0.0,0.0,0.0,0.0,0.0,0.0,0.0,0.0,0.0,0.0,0.0,0.0,0.0,0.0,0.0,0.0,0.0,0.0,0.0,0.0,0.0,0.0,0.0,0.0,0.0,0.0,0.0,0.0,0.0,0.0,0.0,0.0,0.0,0.0,0.0,0.0,0.0,0.0,0.0,0.0,0.0,0.0,0.0,0.0,0.0,0.0,0.0,0.0,0.0,0.0,0.0,0.0,0.0,0.0,0.0,0.0,0.0,0.0,0.0,0.0,0.0,0.0,0.0,0.0,0.0,0.0,0.0,0.0,0.0,0.0,0.0,0.0,0.0,0.0,0.0,0.0,0.0,0.0,0.0,0.0,0.0,0.0,0.0,0.0,0.0,0.0,0.0,0.0,0.0,0.0,0.0,0.0,0.0,0.0,0.0,0.0,0.0,0.0,0.0,0.0,0.0,0.0,0.0,0.0,0.0,0.0,0.0,0.0,0.0,0.0,0.0,0.0,0.0,0.0,0.0,0.0,0.0,0.0,0.0,0.0,0.0,0.0,0.0,0.0,0.0,0.0,0.0,0.0,0.0,0.0,0.0,0.0,0.0,0.0,0.0,0.0,0.0,0.0,0.0,0.0,0.0,0.0,0.0,0.0,0.0,0.0,0.0,0.0,0.0,0.0,0.0,0.0,0.0,0.0,0.0,0.0,0.0,0.0,0.0,0.0,0.0,0.0,0.0,0.0,0.0,0.0,0.0,0.0,0.0,0.0,0.0,0.0,0.0,0.0,0.0,0.0,0.0,0.0,0.0,0.0,0.0,0.0,0.0,0.0,0.0,0.0,0.0,0.0,0.0,0.0,0.0,0.0,0.0,0.0,0.0,0.0,0.0,0.0,0.0,0.0,0.0,0.0,0.0,0.0,0.0,0.0,0.0,0.0,0.0,0.0,0.0,0.0,0.0,0.0,0.0,0.0,0.0,0.0,0.0,0.0,0.0,0.0,0.0,0.0,0.0,0.0,0.0,0.0,0.0,0.0,0.0,0.0,0.0,0.0,0.0,0.0,0.0,0.0,0.0,0.0,0.0,0.0,0.0,0.0,0.0
cog_fluid_mros,0.01052895,-0.0307149167125886,0.0086553075825585,0.0,-0.002567796612251,0.0,0.0049137868891752,-0.0011191498381026,0.0,0.0034994065319577,0.0103313128903139,-0.0005979498821945,0.0,-0.0009444048551109,0.0,0.0,0.0034940327262758,-0.005562524269328,-0.001025677484862,0.0036825318665312,5.761465467216115e-05,-0.0006632142463082,0.0,0.0,0.0,0.0,-0.0042174843120921,-0.0003043122097509,0.0036844283730488,-0.0050483157680208,-0.0027749463759175,0.0,0.0,-0.0013799413307457,0.0,0.0,0.0023371529080252,0.0034302754927152,0.0,-0.0010543258742383,0.0025654535160371,-0.0077332051940869,-1.0901233813359198e-05,0.0003811991411781,-6.773118127143222e-05,0.0004510243530494,0.0,0.0,-0.0060163430813378,0.0,-0.002287408751556,0.0,-0.0021944664062658,0.0,-1.4995699054198994e-05,0.0,0.0,0.0041731025268028,-0.0051149701732363,0.0,-0.0032772866525564,-0.00344827041668,0.0006801636582397,-0.0016448468189416,-0.006289318370217,0.0,-0.0092153608208249,0.0033793103314247,0.0005764370043779,0.0,0.0,-0.0037075060573656,0.0,-0.0012176771585817,0.0042830070129441,0.0,0.0015589691037043,0.0067752024095224,0.0082136214098432,0.0046759141827407,0.0,-0.0004341131555939,0.0,0.0016431537427028,-0.0017679493824707,0.0054000505593051,0.0025781165236362,0.0027013072120738,0.011612042123705,0.0,0.0018985180459021,0.0073472421185436,-0.0010964736744687,-0.0006473958827531,0.0015012115581718,-0.001846088737273,0.0022573288937612,-0.0015973754593888,-0.0005328535270925,-0.0005873178821673,0.0055762247184503,-0.0024579491716849,-0.0035784204909794,0.0,0.0,-0.0035266627703992,-0.001340965293446,0.0014097531717641,-0.0001018959715702,0.0003849618618106,-0.000283824090692,0.0019722757723314,-0.0063574103196992,0.0,0.0,0.0002117531974368,0.0044261666809543,-0.0019422769646808,-0.001566172826868,-0.0041410846726506,0.0085982222512994,-0.0063395467038934,0.0020331548723172,0.0048907307575262,0.0020903998478374,0.0,0.0,-0.0009403358196993,0.0,0.0,-0.0044588862377213,-0.0014198597232805,0.0034525344721749,0.0,0.0056507514686948,0.0099946897941769,0.0084266849990253,8.680795274042983e-05,0.0,0.0,-0.0015765505981918,-1.084974101305213e-05,0.0040300085741573,-0.0045331953328067,0.00827331667921,0.0,0.0,0.0085316089091506,0.0027661233760417,0.0,-0.0063224809590674,0.0053413805409342,0.0030772093799801,-0.0016440083297268,0.0,0.0,-0.0076436878055648,-0.0032442827323793,-0.0003953544361705,-0.0034939420633602,0.0,0.0002068037632432,-0.0026960373537707,-0.0014471755631206,0.0015588398402702,0.0,0.0,-0.0041703805437011,0.0,-0.0008507650390833,0.0,0.0098987065375527,-0.0005305997644474,0.0030650391758115,0.0028319709012003,0.0,0.001658231441815,0.0026325014731089,0.0089421435644919,-0.0019415031518835,-0.0048763140882661,0.0,-0.0108406626008739,0.0030800809361214,0.0,-0.0045220731521247,0.0009640903551092,0.0055089037888287,0.0,-0.0051926610105356,0.0001435943717795,-0.001872449506734,-0.0037038411006276,0.0,0.0,-0.0004692488610676,0.0022843541306835,0.0016006030244178,-0.0041000141248189,0.0,-0.0022908281837968,0.0,0.0,0.0,0.0,0.0,-0.0059910287719921,-0.0070083746766007,-0.0004296740073282,-6.900181084820718e-05,-0.0035333323272065,-0.0023284752127727,0.0,-0.0008023161082114,0.0,-0.0044210464635984,-0.0023078380623766,0.0,-0.007136866493001,-0.000126090496458,-0.0009435442798608,0.0076948350378942,-0.0013116086331836,0.0,0.0,-0.0041232488143288,-0.0033197054562577,0.0,0.0126193980334239,0.0012013448138367,0.0,0.0071894437870444,0.0061527277306338,0.0037873173794831,-0.0007435988015422,0.0,-0.0008390251830835,0.0095046927108606,-0.0015462983365881,0.0,-0.0052615230513727,-0.0073237794400737,0.0025087153856467,-0.0014525798580084,0.0,0.0,0.0011490331286568,0.0,0.0,0.0066765940127876,0.0,-0.0079754626556117,-0.0053884524059774,0.0025109003873564,0.0,0.0046626311694438,-0.0053239227606696,0.0046718359814032,0.0,-0.0032899770661207,-0.0017047207482098,0.0,-0.0005819196185647,-0.0053478578514757,0.0051976434123969,-0.0053794397345516,0.0119111985546355,0.0,-0.000377058081349,-0.0023321762297963,0.0,-0.0049528131964661,-0.0077134365295339,0.0066891045362471,-0.002920146339274,0.0024381048327121,0.0030054591918764,-0.0018208954126859,0.0,0.0,0.0068904548460253,0.0,-0.0006680386385463,0.0004639358513299,0.0083324441947738,-0.0010125310350932,0.0062705865972677,-0.0030887269896659,0.0041284957713852,-0.0096939863082697,0.0,0.0,0.0003809247441514,0.0036214726821307,0.0025835415926662,0.0,-0.0020040906964815,-0.0077871544498778,0.0048377723474046,-0.0062718202177789,0.0,0.0090854260045861,0.0065177005063859,0.0,0.0,0.0081527951373276,0.0085361171444815,0.0030739350374831,0.0030465977786768,-0.0034770577363147,0.0,0.0017707096270546,0.0032362741031596,0.0,-0.0084621483910924,-0.0034694188433073,0.0038751963019993,0.0058543353459643,0.0012984446009844,0.0008636472754421,-0.0081516500636948,-0.0085174366571153,-0.0032297959636696,-0.0031549597530533,0.0062637664255511,0.0,0.007969508242219,-0.0049538855098379,0.0,0.0078346066456934,-0.0055029998306011,-0.0059733038732706,-0.0018421816440601,0.003103894829157,-0.0053800434259469,-0.0053449097944724,0.0,-0.0051181459283487,-0.0054695762266491,-0.0008280202974039,0.0,0.0,0.0001484761994161,0.0,0.0,-0.0022004164080183,-0.0017096625899566,0.0006008801358877,-0.0013810808688098,-0.0026975252582794,-0.0003144209844408,0.001418640422859,0.0005874438280636,-0.0035959229477986,0.0,0.0006438977732658,0.0,0.0055703434674821,0.0,0.0,-0.0006178474952503,0.0049582726858229,0.0028581594235417,0.0,0.0016056572169917,0.0013698766819939,0.0051113628234054,0.0062020541126272,-0.0023559555266525,0.0,0.0021408651348123,0.0,-0.0062793669912603,-0.0029650600886044,0.0063076270729203,-2.9921139830713293e-05,0.0,0.0,0.0004410721087236,-0.0038003054075859,0.0018391669212009,0.0045508189058541,-0.0037121582242023,-0.0017750259099892,0.0064843993966714,0.0011727372894422,-0.0023377091181786,0.0,-0.0070346022646718,0.0,0.0012410023873338,0.0045959325483179,0.0065650389045709,-0.0007150345402556,-0.0045250815761905,0.0003957838290316,-0.0079086585681324,0.0060192044529423,-0.0052192402664182,0.0,0.0005485917998067,0.0001863670315062,0.0027321890870116,0.0038030978837412,0.0009295766428483,-0.0012657523260573,0.0034169770120085,-0.003014016121161,0.000732373008409,0.0,0.0,0.0003616483705474,0.0,-0.0136301356260634,-7.004122049341914e-05,-0.0005932496758027,0.0,-0.0045026358645967,0.0,0.0009963423785244,0.0,0.000231464549299,0.0,-0.0053147520844801,0.0,0.0,-0.0036747372115485,-0.0027560207677355,0.0005876404769217,-0.0026156439247001,-0.0020720367080057,0.011288604816985,0.0056618111142011,0.0041120081867408,-0.0024218730200166,0.0029926720567723,0.0032648795351766,0.0,4.093593144282265e-05,0.0011279672082862,0.0,-0.0120361005636821,-0.0001892868845036,-0.008728683312763,0.0027856203172548,0.0119647090237317,-0.0047329035130687,0.0005309410395223,0.015906251256842,0.0051633634321286,0.0071134238802079,-0.0031356884659453,0.0016264022956507,-0.0010725991660477,0.0,0.0004024473894451,0.0044623975504065,-5.770413485524568e-05,-0.001301289854039,-0.0020373468813023,-0.0057589540312488,-0.0049003250382642,0.0148199085085497,0.0,0.0068427962697198,0.0014127772547072,0.0054889848441172,-0.0012450586850633,0.0,0.0,-0.0023344762095495,0.0,0.0,-0.0039202185778903,-0.0094814920425834,0.0045229782009103,0.0013371750282372,0.0,0.0,0.0035913272966036,0.0,0.0,0.0,-0.0004742800834114,0.0,-0.0049085360017054,0.0,0.0048165473790037,0.0013306667893922,0.0,-0.0060827408299447,0.0030784218871505,0.0,0.0011667214949824,0.0,0.0029299908948654,-0.005013019010537,0.0015018320220421,0.0,-0.0043034489324777,0.0059885084370858,-0.0034014452465781,0.0064357373817384,0.0007952578162697,0.0003014454287968,0.0,0.0,-0.0023605213034661,7.315728236825658e-05,0.0,0.0,0.0,-0.0025361362455072,0.0028606250670747,-0.0013940644618615,0.0029623337750479,0.004810824993867,0.0,0.0,0.0,0.0042950294405228,0.0,-0.0066007959349667,-0.0082271993050112,0.0016648434942951,0.0,0.0,-0.0016801321252202,0.0,-0.003763951776758,0.0024980420622107,0.0,0.0019994185700048,0.0,0.0,0.0070655833085241,0.0046149770090866,-4.301861078644506e-05,0.0,0.0005096309096139,0.0060059195339857,0.0049021554660387,0.0035166781674421,0.0106569237061709,0.0033257447514734,0.0,0.00161689531318,0.0021128780680476,0.0,0.000207925846721,-0.0009218735862989,-0.0002569194365694,0.0,0.0035117398601892,-0.0125362980084027,0.0,0.0010939433329379,0.0,0.0061841122253267,0.0,-0.0065970374461557,0.0021747061884693,0.0,0.0,0.0,0.0,0.0028720368996892,-0.0068354147803832,-0.005816916256179,-0.0017155755914565,0.0,-0.0003890187100145,-0.0010987140342866,0.0012869343403124,0.0,0.0017705702246221,-0.0005508393425262,-0.0030876808749733,-0.0027147254892029,0.0025009809432013,0.002379236324981,0.0,-0.0014407972013421,0.0,0.0078806539044541,-0.0031033314695676,0.0025089554600953,0.0,-0.0142417949090725,-0.0043699314969007,-0.0014518536124486,0.00081577587181,0.0012862682425013,0.0,-0.0047423989816077,0.0,0.0014076550829089,0.0021895213303998,0.0,0.0068410227010626,-0.0085472122504112,-0.0003581638810179,0.0014821938496879,-0.0064888897106872,-0.0165257894381429,-0.0025110283493075,-0.002508436592664,-0.0049179719459028,0.0,0.0,0.0,0.00079976843086,-0.0008838301144169,-0.0044616013447047,-0.0010612446154158,0.0062731130270305,0.0070314983279585,0.0,0.0,-0.0013701212675452,0.0020047069862076,0.0054472870963825,0.0,0.0012489993577073,0.0,-0.0061680334018121,0.0,0.0,0.0006699914714004,-0.00163934388324,0.0,-0.0101424198345314,0.0003065800081478,-0.0044319219063359,0.0018567182489346,0.0061709188416259,-0.0171884936748423,0.0,-0.0048386007402599,-0.0021740884781438,0.006664510888192,0.0,0.0,-0.0059006325104576,-0.0154676964477521,0.0,0.0008160849272891,0.0,-0.0003773720108201,0.0002828664077246,-0.0034243877652266,3.217476667752481e-05,0.002436276689513,0.0190909732587446,0.0,0.0055529633895169,-0.0028079748065216,-0.0049871708511135,-0.0090057667589232,0.0011726061409662,0.0,-0.0002822973326114,0.0017096439292569,0.0,0.0076365018091178,0.0023369134555193,0.010308183626311,0.0,0.0005889657087242,0.0078896284841805,0.0090891656797296,0.0049297456714201,-0.0014645485490186,-0.0012593448478327,-0.0016768163503098,0.0055922935730499,0.003316670453896,0.0,0.000500596231927,0.002102980369023,0.0008013486785215,0.0,0.0004314522229197,0.0,0.0029119556600451,-0.0033505175328568,0.0,0.0,-0.0040041669208714,-0.0002066352593581,-8.150295786831809e-05,0.0,0.0051153830137827,0.0,-0.0064022866619331,-0.0009719831094332,0.0,0.0033445581991834,-0.0042052783919841,0.0,0.0008725844680336,0.0048106075434896,0.0,0.0,0.0026950792654874,-0.0032652524626093,-0.001918751894308,0.0,0.0026117824432583,-0.0024575790358576,0.0,-0.0012013751291484,0.0059148202771692,0.0011344627340958,0.002878621301714,0.0015014377988924,0.0,-0.0020045170806461,-0.0032251371070809,0.008177058520878,-0.0006621144885568,0.0,-0.0008520479478654,0.0,0.0,0.0026888504138042,-0.00145871883415,0.0005553202207322,0.0004511602450024,0.0144826739788258,0.0,0.0026384016811795,-0.0027306035353456,-0.0023617724880388,0.0,0.000210179957352,-0.0102403730625275,-0.010735439762863,0.0005006349917107,0.0050098187611121,-0.0036641953704933,-0.0015776030356651,0.0,0.003462149421903,-0.0027038753191612,-0.0009641466598843,-0.004116168629483,0.0041700712260108,-0.0011780219028911,0.0002061597762955,0.0025750276346292,0.0,-0.0051316215496677,0.0134549340580551,-0.0021177427079301,-0.0015798735280933,0.0,-0.0039867047803425,0.0,0.0,0.0,-0.0042962892563481,-0.001467704185409,0.0,0.0020325737248797,-0.0070543046054772,0.0014003842144147,0.0007084805140478,0.0040534181093577,0.0120386822431064,0.0,-0.0009802672654565,0.0,-0.0044186933203139,0.0,0.0,-0.0001796854598326,-0.0049553417239812,-0.0057780352477739,0.0020716006906831,0.0049534302692319,0.0019800921070279,0.0044335598667958,0.0121463033475067,0.007073380285924,-0.0065750053942864,0.0,-0.0044614959376584,-0.0044857457820834,0.0,0.0,0.0,0.0,0.0,0.0,0.0,-0.0041405637857636,-0.0020453391485841,0.0008545707165388,0.0,0.0,0.0,0.0005667909107609,0.0012672514772316,-0.0013669668587267,0.000704312187782,0.0020327170961261,0.0,0.0,9.076911532333382e-05,0.0,-0.0085475984724575,0.0,0.0002544672233649,-0.0003584424682357,0.0,-0.0029461990721875,-0.0016334432877707,-0.008207898426137,0.0002978360324613,-0.0052359992682881,-0.0007017983661068,0.0,-0.0012356486646536,-0.0010385420245847,0.0001037316346189,-0.0167913879280486,-0.0088596551242042,-0.0003822562493986,0.0006245561863608,0.0,0.0,-0.0005633004677724,-0.0018890807595042,-0.0009756818352571,0.0,-0.0036423872382885,0.0,-0.0027746840080385,0.0,-0.0013292874378692,-0.0008210650861356,0.003522289163983,0.0008085753359752,0.0008665229825922,-0.0018725499008541,0.0,-0.0011171143407447,0.0094812244226444,0.0,-0.0036797081841092,0.0,0.0014787724536703,0.0,0.0,0.0,-0.0029465235461562,0.0,-0.0006536409694224,0.000304307857786,0.0086780544981318,0.0048608781960823,0.0,0.0037002435401242,0.0,0.0002817781526215,-0.0046519649636792,0.0039410428293034,-0.0029966570515287,0.0,0.0017128896689704,0.0005694746791932,0.0,-0.0098901639717017,-0.0008112679438266,0.0,0.000326679067168,-0.0027231732229808,-0.0011555705553094,-0.0066213559644914,0.0,0.00215591500757,-0.0045929611267334,-0.0015634801977239,0.0,0.0,0.0,0.0,0.0,0.0018152080453135,0.0,0.001778139697818,0.0,0.0024482097772987,0.001206772455255,0.0,0.0105309169825746,0.0,-0.0001475132109783,0.0,-0.0024700414506303,0.0,0.0,-1.3801682076848908e-05,0.0,-0.0016625967213032,0.0051988196263103,-0.0064257140998802,0.0,0.0,0.0,0.0,0.005394646301303,0.0,0.004679057624144,0.0060724409122219,-0.006111070827512,-0.0031818564322139,0.0,0.0024130905890227,-0.0101385414139912,0.0009306006099676,-0.0022162370231179,0.0,0.0001613174063696,-0.0036627763845364,0.0074368970525617,0.0042647338118349,0.0007995421059103,0.0,0.0,0.0012416048783538,0.0028558380799902,-0.0036988746427116,-0.0030369562010744,0.0051915848562698,0.0068429871390248,0.0036946118052957,0.0001598311831613,-0.0005709810149689,0.0015475621282242,0.0,0.0049150927504553,0.004150638638953,0.0,0.0,0.0039536855672729,-0.0018589000191056,-0.0051341936544214,-0.0057737325447872,-0.0087330715833527,-0.0034990633386063,-0.009141065941158,0.0,-0.0015717458770115,0.0,-0.0005979725120606,-0.0079119702329439,0.0004045983563369,-0.0043365128755244,0.0031414657317499,-0.0080669485429771,0.0,0.0,0.0,0.0,0.0,0.0,0.0003785191826913,-0.0104658365213416,0.0008634375056273,0.0,0.0,0.0024876706735137,0.0,0.000171756351429,-0.004083116659755,0.0035145063984372,0.0,-0.0002127330510187,0.0,0.0110300991257685,0.000834419384832,-0.0003023721521088,0.0,-0.0066645562194223,0.0047642119845237,-0.0087191377996663,-0.0072812896495713,-0.0079174391434933,-0.0030513747577469,-0.0006807489009834,0.0,-0.0005598597245375,0.0,-0.0045536260461288,0.0,0.0009105916052941,-0.0046238031611897,0.0016151123494897,0.0014380261726293,0.0043620109003036,-0.0018866351681379,0.0,0.0,-0.0030295761037401,0.0,0.0022565156902179,-0.0016001238624547,0.0006026837903996,0.0,-0.0032616565906449,0.0063229897484044,-0.0014495478035998,0.0,0.0070583732427309,0.0,0.0,-0.0191881671573442,0.0,0.0035703394355472,0.0,-0.0065373020376955,0.0032216544636045,0.0015447123523126,0.0006607513620224,-0.0025966882208451
cog_fluid_koges,-0.00275452,-0.083554732854688,0.0083648404008407,0.0047068621391576,0.0,-0.0144039872175804,0.0018710460144704,0.0086891042917375,0.0,0.0011323751556382,0.0190205490881378,0.0,0.0014380078582797,0.0,0.0,0.0,0.008962518721497,-0.0145195809231959,-9.997673100338828e-05,-0.0059862400778061,0.0043796783953928,0.0,-0.0018314631878965,0.0,-0.0028977936175806,0.0,0.0030751549835314,0.0,0.0004226860259729,-0.0064400720709409,-0.0053264171746419,-0.0026731599203614,0.0,-0.0007891932798471,-0.0024247315767114,0.0,0.0,0.01261217770022,0.0026462655908235,0.0003905069342822,0.0167266046203683,-0.0080811032852014,-0.0002592974062938,0.0013294078354099,0.0,0.0069589225126554,-0.0068654167882561,0.0,0.0015516362827195,0.0,-0.0043325397096404,-0.0021183145492145,-0.0020640680211567,0.0003118129825029,0.0,0.0029060037680703,0.0,0.0120100490857747,-0.016461352525849,-0.0006235333180261,-0.0057693797209759,-0.0110885635109633,0.0021742523537071,-0.0035713567168397,-0.0079716791711514,0.0015668706533188,-0.0003216858796625,0.0049077455761001,0.0,-0.0012070581038154,0.0,-0.0152141573888531,-0.0015304002499422,0.0021875348565309,0.0146977928063663,-0.0049028027504698,0.0039911571732658,0.002196850624369,0.0159279162246247,0.0,0.0,-0.0010084509812157,0.0004845041753616,0.0012494859132395,-0.0041465828199985,0.0015029632614303,0.0035710883197738,-0.0044699877026517,0.0089320782016391,0.0,0.0054898392598599,0.0197700148280661,0.0,0.0,0.0,-0.0017577346743999,0.0,0.0091125079584731,-0.0038983640998626,0.0063783085245124,0.003025412169503,-0.0104941203015457,-0.0093395876336583,-0.0005231033156705,0.0061088839408937,-0.0024610182838567,-0.0060570115481983,-0.0011683888320472,0.0,0.0013536981214567,-0.0051481576743786,0.0,-0.0088733267642784,-0.0017975441448819,-0.0002794050009455,0.0006709111105119,0.0050429188943406,-0.0007711617715569,-0.0080492392459521,-0.0123765750866256,0.0127307956634259,-0.0108665076714445,0.0076355801718062,0.010353631717252,0.0059775606260566,0.0018370898965652,0.0066590312166179,-0.0063786597547661,0.0,-0.0049942694988137,-0.0203099889819244,-0.0034756533670909,0.0073241114843801,0.0,0.012581227774576,0.0196458704384479,0.0152117453277958,0.0109489765836963,0.0,0.0001961029616745,-0.0041209326509609,-0.00217009453144,0.0029186248298384,0.0,0.0220051158346167,0.0042829023072141,0.0,0.0119638634828,-0.0079822354319501,-0.0068254562872652,0.0029887797969337,0.0111853571027794,0.0,-0.0062593672771346,0.0074094299197526,-0.0065937952301512,-0.0103580682108469,-0.0028185691148956,-0.0023082276450604,0.00068631836462,0.0016001851278713,0.0002116105161812,-0.0031583010402082,-0.0093932398570369,0.0045520438553448,-0.0051213018247899,0.0016853522638386,-0.0039154424165529,0.0,-0.007522022290027,0.0,0.0230266270256403,0.0031527163680296,0.0019389672738301,0.0080997946199042,-0.0028847349086462,0.006625986867424,0.0,0.0065153650323797,-0.0039999732815297,-0.0137609313489865,0.0,-0.0195352872708177,0.003186317928368,0.0014874173969927,-0.0162409319677999,0.0,0.0099236712202716,0.0,-0.014984406077786,0.0015857951404766,0.0,-0.0121001841299482,-0.0086817810020649,0.0,-0.0017392575661951,0.0061407078054135,0.003627098252628,-0.0093204435375021,-0.0054664471700707,-0.0070592207054873,0.006353375039461,-0.008265193043116,-0.0028370560864287,-0.0004766282217248,0.0,-0.0150785154330345,-0.0077929908634558,-0.00258263322208,0.0,-0.0030126808469374,0.0044061027987147,-0.0002606252481784,-0.0059431082217979,0.0,-0.0113617516857085,0.0062741833161191,0.0,-0.0105420328189089,-0.0021702362275558,-0.0033492136863614,0.0174820536555374,-0.0004857227445949,0.0,0.0,0.0,-0.005164312378999,-0.0009893008494457,0.0097429329882678,0.0,0.0,0.0165841489552039,0.0037254523939847,0.006325901718564,-0.0041752773071806,0.0084810963819345,-0.0021721331346534,0.0002170776354173,0.0013238546945218,-0.0045235973615765,-0.0167601307347012,-0.0173383859967195,0.0023186615158098,-0.0023323648370523,0.0,0.0,0.0008086309799076,0.0,0.0,0.0246599666306487,-0.0003910214595105,-0.0204149846507342,-0.0121345563015948,0.0015927493588018,0.0028495577932305,0.0015118357675731,-0.0140760169180271,0.0091283140022437,0.0014451640627918,-0.0077464144227455,-0.0028924323247041,0.0018847399088822,0.0,-0.0038480679043878,0.0048499466026636,-0.0034498856217022,0.0086362744832398,0.0,-0.0066190689997152,-0.0093432202980799,0.0,-0.0009720521717484,0.0,0.0151578021649116,0.0,0.0186717994240879,-0.0032018211837257,0.003476282064081,0.0,0.0,0.0058789962638308,-0.0003582396402904,-6.409151610710598e-05,0.0,0.015074756584598,0.0,0.010511156962506,-0.0139518637392545,0.0095344789403706,0.0,0.0,0.0,0.0011744308900381,0.0,0.0,0.0003432918550981,-0.0096836561309681,0.0017792976865121,0.0068363960616045,-0.0118899438413227,0.0,0.0136441876913705,0.0004217147542326,0.0,0.019157002040472,0.018133824272992,0.0134459599081555,0.0054223942452396,0.0168629836628281,-0.0080542728898621,0.0,0.0009340077872819,0.004003930379932,0.0012916263380515,-0.0077958320196891,-0.0051165260870995,0.0038248148046278,0.0113366892033867,0.0044232677398708,0.0024279661017537,-0.0065823157644448,-0.0099579787898587,-0.002419198850095,-0.0160077137477343,-0.0049789052315032,-0.0009732183144079,0.0,8.469619302521565e-05,0.0,0.0235807785217964,-0.0199082675222675,-0.0105875444257204,0.0,0.0019168137557131,-0.0127504146978523,0.0,0.0014307133537176,-0.0073906822604681,0.0080756823130076,0.0,-0.010974553143585,0.0,0.0039564917455737,-0.0030381009150021,0.0,-0.005844628403303,0.0,0.0001259491142144,-0.0094329438398305,-0.0008487013884635,-0.0023224474749391,-0.0105519815681769,0.0019558713215187,-0.0132667084796105,0.0,0.0029209301160636,-0.0015563370470376,0.0077220992540416,-0.0039150647688127,0.0056442087284857,-0.0051742811186983,0.0044719536748318,0.0006654873189702,0.0063642514178081,0.0,0.0,-0.0006193992200078,0.0140615856758037,-0.0010790467103367,0.0,0.0018670689732238,0.0019188333929267,-0.0135126152123022,-0.0076994976626231,0.0,0.0103138827407906,-0.0083118905515794,0.0,0.0,-0.0084856306264406,0.0045449425727162,0.0,-0.0042979053169076,-0.0044707819103598,0.0127298427913734,0.0,-0.0115356204060148,0.0005820733100741,-0.006608081927138,0.0,0.0047300491599698,0.009116941359827,0.0,-0.0019901550935868,-0.0016152346777596,1.1246115474374024e-05,-0.0088857964347403,0.0127544256913612,-0.0069558947193887,-0.0003356401731881,0.004314932319543,0.0,0.0005422931405462,0.0013737707625218,0.0,-0.006545788103533,0.0027640873299869,-0.0128247641870003,0.0052407184391818,0.0,-0.0053036926150925,0.0,0.0,-0.007782977043791,-0.0131422172513622,-0.0015903534987674,0.0064814534814564,-0.0063857921472896,-0.0014075003374212,0.0047940528287768,0.0,0.002937456298424,0.0,-0.0112556071102152,0.0017628963554817,0.0,-0.0096287953335809,-0.0099515038322837,0.0065117139280855,-0.0055495391625194,-0.0062927198441237,-0.0004474761827484,0.0021947072608873,0.0118819646536759,-0.0082325167911117,0.0,0.006748479381069,0.0,0.0039488913868616,0.0068876327515782,0.0,-0.0104552022338745,0.0,-0.0187615435300124,0.0045963948565836,0.0317618011590107,-0.0083820329930635,0.0021799826030932,0.0202818794803482,0.0170474377125918,0.0129619087542509,-0.009616061370016,0.0028369954462136,0.0,0.0014368569628367,0.0,0.0109209479408557,-0.0051596290870071,-0.0074766972100433,-0.0025890379455081,-0.0110070738429995,-0.0155517761996529,0.0128983121058612,2.0343944091359754e-05,0.0108721003382929,0.0033892667200251,0.0072769063963545,0.0,-0.0059460123590581,0.0012593647335164,-0.0012893444501335,0.0019351850643548,-0.0040039538010539,-0.016052110624397,-0.0269578097545529,0.0047705476933516,0.0,0.0,-0.0049454396784807,0.0128290811605165,-0.00065903860454,0.0,-0.008251458181079,-0.002550208974097,0.0013930946663101,-0.0110312861674752,0.0101756251415199,0.0026378584605344,-0.0010756048100293,0.0,-0.0090574743803882,0.0021873452391922,-0.0004140764755525,-0.0100693623011686,0.0055678451694703,0.0,-0.0018187510341658,0.0093935470925919,-0.001453668970026,-0.0012586275974482,-0.0001549958599585,-0.0142426925302314,0.0149391173281047,0.0021928958102522,0.001651159285593,0.0085183046083302,0.0005142601729949,0.0022541381216672,0.0025443625276599,0.0001066865539517,0.0,0.0011125129399698,-0.0138006569960938,0.0020704656054641,-0.0021307733354171,0.0,0.0039176399254851,0.0,0.0032216994167422,0.0,0.0149008808932425,0.0006937977219484,-0.0172655603127193,-0.0163589866545999,0.0051581990119238,-0.0021905883287074,0.0,-0.0057796125483814,0.0,-0.00595645526605,0.0,0.0,0.0076761661718268,0.0,-0.0085159249933052,0.0173053095365048,0.0021087252078295,-0.0003450184826018,0.0,0.0,0.0116772079865603,0.0103443894955624,0.0024725290074318,0.0148584068600533,0.0110857122822493,0.0049286735191369,0.0,0.0012777606041992,0.0,0.004118147226006,-0.005184687551204,0.0,0.0,-0.0038702156019836,-0.0164151493798735,0.0,0.0006207167855415,0.0,0.0068286162194306,0.0,-0.0059110128506185,0.0061058261547085,-0.0022931053135711,0.0,0.014946658883343,0.0,0.0070825467612082,-0.0102169449183729,-0.012495446496597,-0.0090285629808899,0.0,-0.0039796539824077,-0.0063673917238362,0.0,0.0,0.0,-0.0043724988381731,-0.0047525824067144,-0.0051036871010386,0.0008661073673568,0.0103177225112221,0.0,9.34944772239962e-05,0.0018489119275145,0.018612315683116,-0.0082147374367412,0.0099853704228114,0.0041218597896309,-0.013972119241773,-0.0064287749814459,-0.0053972956002663,0.0035292604123308,0.0064274020003391,0.0,-0.011994800198429,0.0009229303175319,0.0101324320789541,0.0016132104248478,-0.0101058024685155,-0.0030175082434293,-0.0106500866235373,0.0,0.0,-0.0115808600785891,-0.0283718761148654,-0.0134880795285532,-9.42396177417684e-05,-0.0119360507516263,0.0,0.0,0.0009838739279554,0.0016440198631068,-0.0040817393181473,-0.0002630699484914,0.0,0.0115227015470754,0.0130322635981973,-0.005014080219888,0.0019601035585138,-0.0009254003726462,-0.0082454146804998,0.0285361735778715,0.0038024520407677,0.0022576707889973,0.0034922977250216,-0.0169498894785631,0.0,0.0,0.0101385571498305,-0.0014738050547327,0.0039378141150946,-0.0158010516721212,0.0,-0.0031513770721676,0.0,0.0040987891186345,-0.0288509992487336,0.0,-0.009687315271484,0.0086710587864568,0.0009885274276181,0.0,0.0029982121276946,-0.0112545417833784,-0.0263062030724441,-0.0011914200265904,0.00814337916998,0.0,0.0042504663836754,0.0081562631343177,-0.0048757537647997,0.0018665952792569,0.012386668720562,0.0129243393104925,-0.0007784027446706,0.0094262514025215,-0.0068884101461755,-0.0053269406633559,0.0,0.0033401986377232,0.000955389803405,-0.0013932970742204,0.011456593174142,0.002368896926101,0.0187313109782074,0.0,0.0204602939928949,-0.0083739333340148,0.0082939453029061,0.0121691041676409,0.01480745212113,0.0072084605564113,-0.0101141860287584,-0.0022875516938861,-0.0025419736026282,0.0,0.0003939528027639,-0.001038221310694,0.0,-0.0060448404125998,0.000591993981062,0.0,0.0020060899821303,0.0,0.0086672524394786,0.0092713034861187,0.0,0.0067145384605196,-0.0034220876164916,0.0,-0.0045191112314728,0.0,0.0053983633823869,0.0,0.0067535521002736,0.0,0.0,0.0127589478066215,-0.0088970923194997,-0.0064595322174545,0.0,0.021301746000167,0.0,0.001027780222486,0.0048205575122874,-0.0038488911383706,-0.0074151043899469,0.0031847554140402,0.0047595124159771,-0.0004135736540676,0.0,-0.0068556478687354,0.0,0.0030544035761056,0.010555216920726,0.0,0.0,-0.0040270650003603,-0.0019463967133601,0.0194883683911812,-0.0024635985750259,0.0051534423834353,0.0,-0.0020222869041048,-0.0002537789038452,0.0055697663876647,0.0,0.0,0.004044524312113,0.0101149801279207,0.0,0.0,0.0,-0.0001473694478213,0.004311603140033,-0.0013474433450498,-0.0189232816172626,-0.0153427998537393,0.0,0.0068837076459889,-0.0139959734972292,-0.0152986998509763,-0.0008310028640252,0.0121246266902269,0.0008647367368253,-0.0018219724162975,-0.0017871318409116,0.0170294819476765,-0.005359375292591,0.0,0.0011469850658884,0.0058750868514962,-0.0185133251886571,0.0277062039159019,-0.003098339875979,0.0,0.0095985278391784,0.0046292784998417,0.0013729950739157,0.0,0.0,-0.0069660187538252,0.0,0.0,0.0121185843967905,-0.0171422651213439,0.0,0.0014385860314961,0.0063791590691284,0.0140294595030119,0.0,-0.0044152483224746,-0.0032550325323564,-0.0013737406644074,-0.0041991236075341,0.0,-0.0075728297883266,-0.002701003856174,-0.0136658789947822,0.0007897169772418,-0.005937111724262,0.0,0.0,0.0152794578504849,0.0077956434345677,-0.0128575187783549,0.0049103948318975,0.0187196586055636,-0.0038587580757974,0.0031798259042686,0.0,0.004889864311579,0.0,0.0109374904716578,-0.0002607870902587,0.0,-0.0128955874649093,-0.0016632969595456,0.007673147314543,-0.0009101740834899,-0.0065579700281321,0.0018195050430281,0.0119909725874644,0.0059076731399858,0.0,0.0032724784062797,0.0144205578298511,-0.0031183722026151,0.0,0.0,0.0012123215353563,-0.0134506025743577,-0.0067028096741588,6.666286013306585e-05,-0.0031624681332755,0.0,-0.003879810324036,-0.006555257634146,-0.0091994375155015,0.0037584450701939,-0.0078494050693468,-0.0087876476937439,0.0,0.0,0.0,0.0022809866941586,-0.029017963109511,-0.0180068009679094,-0.004790980165857,0.0,0.0022749568129438,-0.0061919245321695,-0.005983492873072,-0.0064473801705103,0.0,0.0,-0.0100038616101356,0.0,-0.001326203235096,0.0004024335945314,-0.005105362552166,-0.0059168224138431,0.0058354517425076,0.0027020463994307,0.0007841177449468,0.0034757558412439,0.0,-0.001704507301182,0.0170585354629184,0.0,-0.0044168765217688,0.0017721011080852,0.0037238012013616,0.0,-0.0006945665190494,0.0002238536792784,-0.0117050557485343,0.0,0.0,0.0,0.0145456380129853,0.0096013785160474,-0.0051486304287982,0.0116549413126502,-0.0077960752429998,5.352482972696686e-05,-0.0119179298779804,0.0132197782802276,-0.0120843292260128,-0.0041002506699227,0.0088969502263772,0.0,-0.0035351567437562,-0.0164147255379791,-0.0010897458267972,0.0055891386883416,-0.0039998089487597,-0.0067852456746004,-0.0078608872254254,-0.0252161995583298,0.0002838449647298,0.0,-0.007886159266869,-0.0036055252535096,0.0148063400612838,0.0,0.0,0.0053478801956999,0.0,0.0,0.0,0.0,-0.0060117352439094,0.002639272731284,0.0072228153507388,-0.0022413039055563,0.0082526373480623,0.0,-0.006419863388182,0.0,-0.0217892277582807,-0.0014435092397556,0.0,-0.00360770850179,0.0,0.0,0.0042488974129113,-0.0143560230686857,-0.0031879667373964,0.0019809660723701,0.0,-0.0002207913630513,0.0013519257570986,0.0058452097681161,0.0053242397930623,0.0160237951909778,0.0004691694850022,-0.0065124229234135,0.0019776782431764,0.0009753360074641,-0.0116258021312691,0.0,-0.0060375796732566,0.002617908341721,0.0056860213000754,-0.0097419145403973,0.0171451530398564,-0.0070087099743529,0.0029120286611924,-0.0012713018924264,0.0,0.0012235348552772,0.0116696287463338,-0.0105282914281107,0.0,0.0121397591147942,0.0,0.0,0.0,0.0026566824229307,0.0152413267010141,-0.0043461283418298,0.0091311554808072,0.0142607892735275,0.0,0.0020701475383919,0.0163460601885339,-0.0064632997014411,-0.0071252727041194,-0.0135696166503298,-0.012842609952039,-0.0083176566088903,-0.0291273745153279,0.0006613181641174,-0.0104447931361353,0.0,0.0,0.0,0.0004503391753463,-0.0073476966137293,0.0072567969087041,-0.0148226104966628,0.0053780501694688,0.0,0.0,0.0,0.0,-0.0034718827667695,0.0140011283508608,-0.0100348778915232,0.0,0.0025476888163339,0.0029961862427758,-0.0039822045908222,0.0,0.0003740114302281,-0.0145943943571023,0.0,0.0011854690969412,0.0,-0.0027997097919866,0.0163245017629724,0.0002706324516505,-0.0010725355951139,-0.0011490442264272,-0.013756069383899,0.0,-0.0121837339989019,-0.0129678741709695,-0.002188077742896,-0.0029012112870745,-0.0006517247492304,0.0,-0.0016618604426815,0.0022789337704785,0.0,0.0,0.0014497020257112,-0.0062997876832869,0.0021241558688346,0.0,0.0,0.0,0.0,0.0029729552345718,-0.0019606175835017,0.0004990546308173,0.0,0.0,0.0025063546025512,-0.0006757703195707,-0.0104275220854328,0.0125326214139439,-0.0057553577799627,-0.0022111450685026,0.0146109444228702,0.0,0.0039721356270432,-0.0146250716467941,0.0,0.0069724596961818,0.0,-0.0198441551840391,-0.0054283102430208,0.0,0.0009899077762581,-0.0048092867326356
np_mgh-mmse-mmse,0.00740321,-0.0032071129898923,0.0077213530552702,0.0,0.0,0.0,0.0,0.0,-0.0011264804148452,0.0,0.0008639576913488,-0.0076240680399654,0.0,0.0,0.0,0.0,-0.0047823108798991,0.0076053628223051,-0.0103111457505422,0.0104688568776158,0.0,0.0,0.0,0.0028171226399768,0.0,0.0,0.0,0.0,0.0,0.0,0.0,0.0,0.0,0.0,0.0,0.0,0.0039000284425209,-0.003300625006651,0.0,0.0,0.0,-0.0008001108204965,0.0,0.0012828695547597,0.0,0.0,0.0,0.0140923096974206,0.0,0.0,0.0,0.0,0.0078733284540472,0.0,0.0054357444474008,0.0,0.0,0.0,0.0,0.0,0.0,0.0,-0.0008263133133682,0.0091700587907381,0.0,0.0102274420020312,-0.0033691068211508,0.0,0.0,0.0,0.0,0.0,0.0024476251136905,0.0,0.0075058008061478,0.0,0.0,-0.0062029597614508,0.0055308259343763,0.0,0.0,-0.0007225009746247,0.0,0.0,0.0,-0.0053647319613031,0.0021610165725999,0.0,0.0,-0.0040308351902719,0.0002807368776984,0.0185529510370156,0.0206629886971654,0.0,0.0,0.0,0.0,0.0,0.0,-0.0072508926926605,0.0,-0.0003470156878407,0.0,0.0,0.0083531604187359,0.0,0.0,0.0114215104320794,0.0,0.0,0.0080768214404878,-0.0056634959698178,0.0,0.0,0.0,0.0,0.0,0.0,0.0,0.0,0.0009908461116676,-0.0049928885629335,0.0,0.0172311095206178,0.0113249202567998,0.0,0.0,0.0,0.0,0.0,-0.0049205981874069,0.0,0.0,0.0,0.0,0.0018125765030781,0.0046014229002507,0.0,0.0059711520507606,0.0038104783392212,0.0,0.0,-0.0027612976371357,0.0,0.0,0.0,0.0,-0.0143675873481547,0.0,0.0058490393918055,0.0,0.0034293976628105,0.0,-0.0095178407279819,0.0,0.0,-0.0110900387602794,0.0,0.0,0.0085558039866785,0.0,0.0,0.0034552709690572,0.0,-0.0133243545391854,0.0078345306887729,0.0,0.0,0.0,0.0,0.0060455750739333,0.0,0.0,0.0,0.0053720493569534,0.0,0.0,0.0204859438143952,-0.0017231339698342,-0.0040744297475409,-0.0124835500970615,0.0,-0.0094805836565225,0.0,0.0,0.0,0.0,0.0,-0.0181855800196062,0.0,0.0,0.0,0.0,0.0062460368592652,0.0,0.0,-0.0065076985685104,0.0001625076387402,0.0,-0.0071203167627402,0.0002998080932759,0.0,-0.0173341875558116,-0.0157272030027895,0.0,-0.0030886474393427,0.0,0.0,0.0,0.0,-0.0013745132792967,0.0049810178795646,0.0,0.0,0.0,0.0,-0.014355573815934,0.0,0.0,0.0,0.0,0.0,0.0110021647257359,-0.0004046014609419,0.0096497318419245,-0.0076605610223544,-0.0074426623048006,0.0,0.0098307689261037,0.0,-0.0036122788025979,0.0127200324876498,0.0,0.0048101307369318,0.0,0.0037975441875151,0.0,0.00789466857464,0.0,0.0077748478393548,-0.0049001438006153,-0.013646791259925,0.0,0.0,0.0,0.0,0.0,0.0002055155557261,-0.008454527744119,0.0075738360652361,0.0,-0.0124607113649386,0.0,0.0,-0.0099436358954083,0.0,0.0,0.0,0.0,0.0,0.0029208779995247,0.0,-0.0181566520327932,0.0,0.0,0.0,0.0242972928515374,0.0,-0.0014976768211377,0.0,0.0106366685850474,-0.0025594475500152,0.0,0.0,0.0129043859585415,0.0,0.0,0.0118638508169361,0.0,0.0,0.0,0.0017005391134739,0.0,0.0,0.0087875784086406,0.0019864293136537,0.0122654790067822,0.0,0.0,-0.0128600619035714,0.0,0.0,0.0,0.0025243823502197,0.0,0.0138360560777277,0.0035812076871646,-0.0015802136410181,0.0,0.0,0.0,0.0022852565993782,0.0091136058979017,0.0,0.0,0.0036538774470354,0.0,0.0009309543614568,0.0,0.0,0.0052888230174738,0.0,0.0,0.0072752029681326,0.0,0.0,0.0,0.0,0.0,0.0,0.0,0.0,0.0,0.0,0.0,-0.0010024072704537,-0.0141578611879593,0.0,0.0035508303917647,0.0054774806716755,0.0,-0.0018939783057543,0.0,0.0,0.0,0.0,0.0,0.0,0.0,4.963570006437444e-05,0.0019844985778365,0.0,0.0,-0.0015102072558634,0.0009502153582885,0.0001056574887812,0.0,0.0,0.0,-0.0018104521359913,0.0,0.0,0.0,0.0,0.0,0.0,-0.007172868929342,0.0,0.0023418318072627,0.0,0.0,0.0092664681835014,0.0,0.0011470236500564,0.0,-0.0016589605002759,0.0061325444858586,0.0,-0.0042996106167984,0.0,0.0,0.0,0.0,0.0,0.0,0.0,-0.0081070596087751,0.0,0.0186556400652276,-0.0002263538043046,0.0,0.0,0.0005801164709818,0.0,0.0116656957332139,0.000449924050642,-0.0014895852781023,0.0,0.0,0.0,0.0,0.0,0.0091509202016519,0.0,0.0,-0.0012970567262776,0.0,0.0,0.0,0.0,0.0,0.0,0.0,0.0,0.0,-0.0016066345319595,0.0,0.0099121522427072,0.0,0.0,0.0,0.0,0.0,-0.0069817582986087,0.0,0.0,0.0,0.0,0.0,0.0,0.0,0.0014940765868011,0.0,0.0,0.0,0.0026468710535634,0.0,0.0,0.0,0.0,0.0,0.0,0.0,0.0,0.0,0.0,-0.00093640354093,0.0031365118086976,0.0,0.0,0.0029324630808212,0.0,0.0,0.0,0.0,0.010833883918449,0.0,0.0,0.0006292437254845,0.0,0.0,-0.0006225443576521,0.0,0.0049048846935675,0.0,0.0,0.0,0.0,-0.0016203674546248,0.0,0.0,-0.0089585470754361,0.0053509723156589,-0.0027378419488071,0.0090409173245131,0.0,0.0015273991573151,0.0005510361664931,0.0,0.0,0.0,0.0,0.0,0.0,-0.0009939586707069,0.0,0.0,0.0,-0.002306729910899,0.001314808303745,0.0,0.0014102673346975,0.0,0.0017355619848867,0.0,-0.0042947459186266,0.0020559473583295,0.0,0.0003509515432204,0.001290887820519,-0.0006049058322701,0.0050559012721163,-0.004243473009344,0.0,-0.0022483974232939,0.0010630606463341,0.0,0.0,0.0,0.0,0.0,-0.0017420755091063,0.0114924371003218,0.0,0.0013517701710866,0.0,0.0,0.0,0.0,0.0,0.0,0.0,-0.0049646649497041,0.0,0.0,0.0,0.0,-0.0025951758085602,0.0,-0.0070494237850802,0.0,0.0,-0.0019464751351625,0.0,0.0105293123250925,0.0,-0.0142791099016061,0.0,0.0,-0.0059853990441905,0.0036412067345328,0.0007396679802292,0.0030983532384336,0.0,0.0,0.0068783752954092,-0.002106357172628,0.0,0.0,0.0,0.0,0.0,0.0,0.0,0.005246068760555,0.000332501993724,0.0006012084128957,0.0055394556625574,0.0,0.0,0.0,0.0,0.0,0.0,-0.0125633476490105,0.0,0.0,0.015686568533907,0.0011231962951839,0.0,0.0,0.0,0.0,0.0,0.0,0.0,0.0,-0.0052340524180883,0.0066595043014004,0.0,-0.0076196985460412,0.0,0.0,0.0,0.0,0.0,0.0,0.0,0.0,0.0,0.0001785112815097,0.0015070504231081,0.0,0.0,0.0,0.0,0.0005304103029644,-0.0043737500544831,-0.0045032716304328,0.0,0.0,-0.0042522076866979,-0.0083185865306308,0.0092302173450119,0.0031263461038466,0.0,0.0,-0.0004887657078032,0.0076946680027581,0.0,0.0,0.0008108891991719,0.0,0.0,-0.0396000180012782,0.0,0.0111838271839553,-0.0025973844640268,0.0,0.0,0.0,0.0,0.0026823374505824,-0.0055463930273298,0.0,0.0091157506222388,0.0151715838101548,-0.0014169659825806,0.0,0.0,0.0,0.0,0.0,0.0003876427823869,0.0,0.0,0.0,0.0,0.0029923665282962,-0.0011859492309584,-0.0053589066625963,-0.0017355866552623,-0.0091909332122818,-0.0212623038862356,0.0,0.0,-0.0223075882551528,0.0,-0.0007810316038006,0.0,0.0101291198109374,0.0,0.0,-0.0136723989434632,-0.0104054054142278,0.0002663577427901,0.0054595089848478,0.007128045934179,0.0,0.0,0.0,0.0,0.0,0.0160505654310455,0.0,0.012471167468375,0.0,0.0,0.0,0.0,0.0,0.0,0.0,0.0,0.0086107559197332,0.0,0.0173439002736332,0.0179925370158976,0.0,0.0,0.0054644173044333,0.0,0.0,0.0086745601976496,0.0036943028425658,0.0,0.0,-0.0005477203031994,0.0,0.0,0.0,0.0014437282452126,0.0,0.0028780718885012,0.0,0.0,0.000945125317159,0.0065134042212123,0.0,0.0,0.0190478716605674,0.0,-0.0008060707779619,0.0,-0.0057948099397608,0.0,0.0,0.0,-0.0010067198744106,0.0,0.0,0.0024338686155823,0.0128879571047456,0.0023496874091345,0.0022552772645818,0.0,0.0,0.0,0.0,0.0,0.0,0.0,0.0,0.0,-0.0174346815370609,0.0,0.0083070239388125,0.0,0.0,0.0067390016513804,0.0,0.0,0.001471776336569,-0.0013301064507172,0.0003737964827965,-0.0022271574748368,-0.0018839971190268,0.0,0.0007166075980668,0.0238776572216171,0.0,-0.0038760797777322,0.0,-0.0021653762834089,-0.0197087433193257,0.0,-0.0109404347580393,-0.0005845420980703,0.0,0.0062641499009245,-0.0032287160057266,-0.0016925049408882,0.0,0.0045894544937553,0.0,0.0,0.0,0.0134728138283291,0.0,0.0,0.0011676242768364,-0.0126856651201365,0.0,0.0157776954318915,0.0,0.0,0.0,0.0,0.0,0.0,0.0,0.0,0.0,0.0040955508076883,0.0,0.0,0.0016886241050889,-0.0217236857112095,0.0,0.0064146087283792,0.0,0.0,0.0,0.0,-0.0149837602890322,0.0087207171709141,0.0076227836301759,0.0,0.0,0.0,0.002244854630557,0.0,0.0019607213197053,0.0135061199942188,0.0,-0.0023192276795012,0.006663117316201,-0.0047600851896265,0.0,-0.002882386030906,-0.0017489437109335,0.0,0.0,0.0070472416646912,0.013962048151004,0.0,-0.0051974143960192,0.0,0.0,0.0,0.0,0.0117173432712677,0.0,0.0,-0.0035223572335567,0.0,0.0,0.0,0.0,0.0036550624106198,0.0,0.0,0.0152968706970995,0.0,0.0,0.0,0.0,-0.0055400235666573,0.0,4.597303313429441e-05,0.0,-0.0086865207520781,-0.0013175717915068,-0.0004853719570191,0.0204671721465278,0.0,-0.0067937227064795,0.0,0.0013605147374623,0.0,0.0,-0.0055220777337018,0.0,0.0024169926434075,0.0,0.0,-0.0058392231294809,0.0,0.0,0.0,-0.0034314820836198,0.020967659038931,0.0,0.0,0.0067688634789769,0.0,0.0,0.0,0.0063348977975181,0.0,-0.0028789440722435,0.0,-0.0243402713649957,0.0014707681827322,0.0,0.0087820842383227,0.0,0.0,0.0,0.0007934339119465,0.0093369843695301,0.0,-0.001270935026413,0.0,-0.0040726713600991,0.0,-0.0080817558545738,0.0,0.0,0.008392532182083,0.0008077355567621,0.0,0.0,-0.0091226299906524,0.0,0.0034046426002364,-0.0003921573764246,0.0,0.0,-0.002439477859293,0.0,0.0,0.010535662194024,0.0,0.0,0.0,0.0,0.0,-0.0006369823429156,0.0042151627061093,0.0105729557068291,0.0,0.0,0.0,0.0,0.0,0.0003706022057096,0.0,0.0,0.0003297329434821,0.0,0.0005646071473402,0.0,0.0,0.0,0.0,-0.005644687658934,-0.015954000801291,-0.0038279851011593,0.0030877658741829,0.0,0.0,0.0,-0.0135755639091489,0.0,0.0054710355887238,-0.0004413372640376,-0.0004627497633152,-0.003372539825385,0.0,-0.0034109596041211,-0.0016841914398316,0.0,0.0,0.0,0.0,0.0,0.0,0.0,0.0,0.0,0.0124055461932518,0.0,0.0,-0.0055626255674732,0.0026327524478691,0.0,0.0,0.0100691083193047,-0.0090073262479275,0.0044075550561428,0.0042024905934392,0.0039846168509587,0.0,5.7734750996596514e-05,0.0,0.0,-0.0023919575162349,0.0,0.0,0.0,0.0,-8.687488617106956e-05,-0.0079617001338685,0.0066270695962333,0.0,0.0,-0.0006280315003559,0.0,0.0040365502500742,0.0,-0.0171748263734537,0.0,0.0,0.0,0.0,0.0,-0.0023428965469824,-0.0167997783179583,-0.0134373974662228,-0.0067352907600564,0.0,0.0,0.0,-0.0055810462312083,0.0,-0.0048094787994335,0.0,0.0051056795294235,0.0,0.0035346620222241,0.0074205947517396,0.0,0.0,-0.0023444890105568,0.0,0.002497288271832,-0.011428914266696,0.0,0.0,-0.0071938460665311,-0.0003843626447529,-0.0006727758409219,-0.0191582934824228,0.0,-0.0116307499335347,0.0,0.0,0.0,0.0,0.0074505678176383,0.0030543191339056,0.0,-0.0050255719159913,0.0,0.0,0.0064996579674834,-0.0074753193366859,0.0,-0.0042507629273608,0.0008178352041174,0.0,0.0,0.0178727618016348,0.0,0.0231821004819937,-0.0058649552585326,0.0,-0.0011791374968657,0.0,0.0156886770235943,0.0,0.0,0.0,-0.0011757603240058,0.0,0.0
cog_crystallized_mgh-cog,0.13183076,0.1135856067544481,0.0,0.0,0.0,0.0,0.0,0.0,0.0,0.0,0.0,0.0,0.0,0.0,0.0,0.0,0.0,0.0,0.0,0.0,0.0,0.0,0.0,0.0,0.0,0.0,0.0,0.0,0.0,0.0,0.0,0.0,0.0,0.0,0.0,0.0,0.0,0.0,0.0,0.0,0.0,0.0,0.0,0.0,0.0,0.0,0.0,0.0,0.0,0.0,0.0,0.0,0.0,0.0,0.0,0.0,0.0,0.0,0.0,0.0,0.0,0.0,0.0,0.0,0.0,0.0,0.0,0.0,0.0,0.0,0.0,0.0,0.0,0.0,0.0,0.0,0.0,0.0,0.0,0.0,0.0,0.0,0.0,0.0,0.0,0.0,0.0,0.0,0.0,0.0,0.0,0.0,0.0,0.0,0.0,0.0,0.0,0.0,0.0,0.0,0.0,0.0,0.0,0.0,0.0,0.0,0.0,0.0,0.0,0.0,0.0,0.0,0.0,0.0,0.0,0.0,0.0,0.0,0.0,0.0,0.0,0.0,0.0,0.0,0.0,0.0,0.0,0.0,0.0,0.0,0.0,0.0,0.1366813518669968,0.0,0.0,0.0,0.0,0.0,0.0,0.0,0.0,0.0,0.0,0.0,0.0,0.0,0.0,0.0,0.0,0.0,0.0,0.0,0.0,0.0,0.0,0.0,0.0,0.0,0.0,0.0,0.0,0.0,0.0,0.0,0.0,0.0,0.0,0.0,0.0,0.0,0.0,0.0,0.0,0.0,0.0,0.0,0.0,0.0,0.0,0.0,0.0,0.0,0.0,0.0,0.0,0.0,0.0,0.0,0.0,0.0,0.0,0.0,0.0,0.0,0.0,0.0,0.0,0.0,0.0,0.0,0.0,0.0,0.0,0.0,0.0,0.0,0.0,0.0,0.0,0.0,0.0,0.0,0.0,0.0,0.0,0.0,0.0,0.0,0.0,0.0,0.0,0.0,0.0,0.0,0.0,0.0,0.0,0.0,0.0,0.0,0.0,0.0,0.0,0.0,0.0,0.0,0.0,0.0,0.0,0.0,0.0,0.0,0.0,0.0,0.0,0.0,0.0,0.0,0.0,0.0,0.0,0.0,0.0,0.0,0.0,0.0,0.0,0.0,0.0,0.0,0.0,0.0,0.0,0.0,0.0,0.0,0.0,0.0,0.0,0.0,0.0,0.0,0.0,0.0,0.0,0.0,0.0,0.0,0.0,0.0,0.0,0.0,0.0,0.0,0.0,0.0,0.0,0.0,0.0,0.0,0.0,0.0,0.0,0.0,0.0,0.0,0.0,-0.0189552470401966,0.0,0.0,0.0,0.0,0.0,0.0,0.0,0.0,0.0,0.0,0.0,0.0,0.0,0.0,0.0,0.0,0.0,0.0,0.0,0.0,0.0,0.0,0.0,0.0,0.0,0.0,0.0,0.0,0.0146785603941068,0.0,0.0,0.0,0.0,0.0,0.0,0.0,0.0,0.0,0.0,0.0,0.0,0.0,0.0,0.0,0.0,0.0,0.0,0.0,0.0,0.0,0.0,0.0,0.0,0.0,0.0,0.0,0.0,0.0,0.0,0.0,0.0,0.0,0.0,0.0,0.0,0.0,0.0,0.0,0.0,0.0,0.0,0.0,0.0,0.0,0.0,0.0,0.0639737984284537,0.0,0.0,0.0,0.0,0.0,0.0,0.0,0.0,0.0,0.0,0.0,0.0,0.0,0.0,0.0,0.0,0.0,0.0,0.0,0.0,0.0,0.0,0.0,0.0,0.0,0.0,0.0,0.0,0.0,0.0,0.0,0.0,0.0,0.0,0.0,0.0,0.0,0.0,0.0,0.0,0.0,0.0,0.0,0.0,0.0,0.0,0.0,0.0,0.0,0.0,0.0,0.0,0.0,0.0,0.0,0.0,0.0,0.0,0.0,0.0,0.0,0.0,0.0,0.0,0.0,0.0,0.0,0.0,0.0,0.0,0.0,0.0,0.0,0.0,0.0,0.0,0.0,0.0,0.0,0.0,0.0,0.0,0.0,0.0,0.0,0.0,0.0,0.0,0.0,0.0,0.0,0.0,0.0,0.0,0.0,0.0,0.0,0.0,0.0,0.0,0.0,0.0,0.0,0.0,0.0,0.0,0.0,-0.0393937915809463,0.0,0.0,0.0,0.0,0.0,0.0,0.0,0.0,0.0,0.0,0.0,0.0,0.0,0.0,0.0,0.0,0.0,0.0256418746423343,0.0,0.0,0.0,0.0,0.0,0.0,0.0,0.0,0.0,0.0,0.0,0.0,0.0,0.0,0.0,0.0,0.0,0.0,0.0,0.0,0.0,0.0,0.0,0.0,0.0,0.0,0.0,0.0,0.0,0.0,0.0,0.0,0.0,0.0,0.0,0.0,0.0,0.0,0.0,0.0,0.0,0.0,0.0,0.0,0.0,0.0,0.0,0.0,0.0,0.0,0.0,0.0,0.0,0.0,0.0,0.0,0.0,0.0,0.0,0.0,0.0,0.0,0.0,0.0,0.0,0.0,0.0,0.0,0.0,0.0,0.0,0.0,0.0,0.0,0.0,0.0,0.0,0.0,0.0,0.0,0.0,0.0,0.0,0.0,0.0,0.0,0.0,0.0,0.0,0.0,0.0,0.0,0.0,0.0,0.0,0.0,0.0,0.0,0.0,0.0,0.0,0.0,0.0,0.0,0.0,0.0,0.0,0.0,0.0,0.0,0.0,0.0,0.0,0.0,0.0,0.0,0.0,0.0,0.0,0.0,0.0624654543652817,0.0,0.0,0.0,0.0,0.0,0.0,0.0,0.0,0.0,0.0,0.0,0.0,0.0,0.0,0.0,0.0,0.0,0.0,0.0,0.0,0.0,0.0,0.0,0.0,0.0,0.0,0.0,0.0,0.0,0.0,0.0,0.0,0.0,0.0,0.0,0.0,0.0,0.0,0.0,0.0,0.0,0.0,0.0,0.0,0.0,0.0,0.0,0.0,0.0,0.0,0.0,0.0,0.0,0.0,0.0,0.0,0.0,0.0,0.0,0.0,0.0,0.0,0.0,0.0,0.0,0.0,0.0,0.0,0.0,0.0,0.0,0.0,0.0,0.0,0.0,0.0,0.0,0.0,0.0,0.0,0.0,0.0,0.0,0.0,0.0,0.0,0.0,0.0,0.0,0.0,0.0,0.0,0.0,0.0,0.0,0.0,0.0,0.0,0.0,0.0,0.0,0.0,0.0,0.0,0.0,0.0,0.0,0.0,0.0,0.0,0.0,0.0,0.0,0.0,0.0,0.0,0.0,0.0,0.0,0.0,0.0,0.0,0.0,0.0,0.0,0.0,0.0,0.0,0.0,0.0,0.0,0.0,0.0,0.0,0.0,0.0,0.0,0.0,0.0,0.0,0.0,0.0,0.0,0.0,0.0,0.0,0.0,0.0,0.0,0.0,0.0,0.0,0.0,0.0,0.0,0.0,0.0,0.0,0.0,0.0,0.0,0.0,0.0,0.0,0.0,0.0,0.0,0.0,0.0,0.0,0.0,0.0,0.0,0.0,0.0,0.0,0.0,0.0,0.0,0.0,0.0,0.0,0.0,0.0,0.0,0.0,0.0,0.0,0.0,0.0,0.0,0.0,0.0,0.0,0.0,0.0,0.0,0.0,0.0,0.0,0.0,0.0,0.0,0.0,0.0,0.0,0.0,0.0,0.0,0.0,0.0,0.0,0.0,0.0,0.0,0.0,0.0,0.0,0.0,0.0,0.0,0.0,0.0,0.0,0.0,0.0,0.0,0.0,0.0,0.0,0.0,0.0,0.0,0.0,0.0,0.0,0.0,0.0,0.0,0.0,0.0,0.0,0.0,0.0,0.0,0.0,0.0,0.0,0.0,0.0,0.0,0.0,0.0,0.0,0.0,0.0,0.0,0.0,0.0,0.0,0.0,0.0,0.0,0.0,0.0,0.0,0.0,0.0,0.0,0.0,0.0,0.0,0.0,0.0,0.0,0.0,0.0,0.0,0.0,0.0,0.0,0.0,0.0,0.0,0.0,0.0,0.0,0.0,0.0,0.0,0.0,0.0,0.0,0.0,0.0,0.0,0.0,0.0,0.0,0.0,0.0,0.0,0.0,0.0,0.0,0.0,0.0,0.0,0.0,0.0,0.0,0.0,0.0,0.0,0.0,0.0,0.0,0.0,0.0,0.0,0.0,0.0,0.0,0.0,0.0,0.0,0.0,0.0,0.0,0.0,0.0,0.0,0.0,0.0,0.0,0.0,0.0,0.0,-0.0236672610009285,0.0,0.0,0.0,0.0,0.0,0.0,0.0,0.0,0.0,0.0,0.0,0.0,0.0,0.0,0.0,0.0,0.0,0.0,0.0,0.0,0.0,0.0,0.0,0.0,0.0,0.0,0.0,0.0,0.0,0.0,0.0,0.0,0.0,0.0,0.0,0.0,0.0,0.0,0.0,0.0,0.0,0.0,0.0,0.0,0.0,0.0,0.0,0.0,0.0,0.0,0.0,0.0,0.0,0.0,0.0,0.0,0.0,0.0,0.0,0.0,0.0,0.0,0.1505746064109943,0.0,0.0,0.0
